IID,PC1,PC2,PC3,PC4,PC5,PC6,PC7,PC8,PC9,PC10,PC11,PC12,PC13,PC14,PC15,PC16,PC17,PC18,PC19,PC20
SYN0474,0.038463675076161434,-0.0038163107916576906,0.04475231822167095,-0.009635485875591274,-0.04123489513787594,0.02781846794874502,-0.01914839401139002,0.04412998867158315,-0.007844623000094052,-0.02435977254916126,-0.08210362689984825,0.001911399860546328,0.08709201484532335,0.032900710476106654,-0.07373006633971811,0.055765866568083536,-0.020181504566035593,-0.03783344417956561,0.038932035600892374,-0.03765505299958005
SYN0133,-0.04555723511938918,-0.03709791983133989,0.07899407620609254,0.03778894747763579,0.05996280469551381,-0.022485007543365017,-0.03531244050835581,0.014457589612183352,0.014939515667819495,0.004850244628407688,-0.021694727870231596,-0.01655197190744649,0.018509162498983503,0.01068476891065113,-0.04104971762909849,-0.0861367257126488,0.08144567771646777,-0.06119782731555726,0.009059214221354675,0.034434114224744586
SYN0473,0.02518366131162804,-0.084309387102797,0.008462225297695206,0.055557016139334336,-0.031296205453838565,-0.05646017672636229,0.012898088819461131,-0.0140503641385108,-0.0486566009705157,-0.0641037145445191,-0.026712500162412205,-0.01942672450797176,0.021524993759667953,0.021139901021825013,0.03886517907551772,-0.049106148193730915,-0.0013247480833898082,0.011087581251832172,0.0012301254709814174,0.020636901570052057
SYN0047,-0.04382791735042222,-0.08230209621304939,-0.022354111966703626,0.05290298903050408,-0.04882971155702976,0.021764921526993112,0.05792829117652693,0.03118302935540466,-0.09015493138239743,-0.005734997326679519,-0.058712155123827055,-0.004779039997992758,0.043271816126488415,0.009178264244870539,-0.0037120138860434653,-0.005172170766952695,-0.041223165939210785,-0.022211706217294673,0.07263789526275656,0.008714409889372308
SYN0041,-0.08655923589181709,0.031699090914084495,-0.0094832292141009,-0.011524722181188649,-0.03838166091085066,0.05659157416184357,-0.026957015902153287,0.03640464794016769,0.02994987072445257,-0.006698677282481949,-0.015560483484193468,0.07508672259270137,-0.026366580100171927,-0.05715389781322855,0.078538221461198,0.00317622040011158,0.036366545372238546,0.05228366947040981,0.042049262347569824,-0.03203505038390733
SYN0233,-0.012964970766752494,0.029260779676501293,-0.0006097196797596732,0.018510518332854598,-0.005267420525389475,-0.013931812890028587,0.004180666793107773,0.039864415032517496,-0.09848207562346381,-0.08126100377609814,0.004292588225189464,-0.007115855565249376,0.06578624180806256,0.04249510996188159,0.02485417847365206,0.019283596398235715,0.033220706271842974,0.0337346179115327,0.035617883180002134,0.05664052760114589
SYN0046,0.0262916833513281,0.025037801129149426,-0.046783390976392454,-0.0818201309589483,0.007905589524061622,-0.006264862789132735,-0.014451107758627114,-0.0011099265356817273,-0.09959172297105948,-0.0478889993503933,0.05475970222720282,0.02005180556159804,0.06623056320859098,-0.04136678841495427,0.04986954237876563,-0.04330181442974957,0.02492807563524966,-0.016243327891313972,-0.0068609949994378,-0.04576071603751265
SYN0429,0.030904196543130775,-0.022988811576016645,0.016792111987359293,0.041987914103320194,0.017246514925352695,-0.018766954265294764,0.03444624193257186,-0.014598501971622964,-0.011848453747373748,0.014714435413681635,0.03397796542307463,0.04734846476076446,0.05319663157775792,0.06163573869763011,-0.03319443095314147,0.0863916499360903,-0.03187030348570259,0.014532858519166645,-0.04297576562917977,-0.02310109930436783
SYN0327,-0.1070666222058319,0.03425094052908029,-0.025043354899277028,0.005946367184821302,-0.009095160318983296,-0.005997931473306493,0.04867787474914837,-0.021010796675257785,0.08995730527331357,0.04557602345017862,0.0921022516016407,0.03925337619069978,-0.05718379590262998,0.027662035237939676,-0.02730373722915261,-0.03907329482105526,-0.005954144865035456,-0.011511732360082726,-0.01909394954033953,0.12474078296241149
SYN0160,-0.013396583115956663,-0.016751049165930624,0.07380127607429875,0.01175426195316772,0.008378210683322054,-0.02752021556304228,-0.055622126521538605,-0.045423394635681326,-0.06742064027535795,-0.015618906978198859,-0.007633357839558629,0.017361660801865214,0.0717656831420969,0.04855894228110745,-0.0588223245373874,-0.021267334216351207,0.03353525005064847,-0.01125601799436273,-0.08160870138786194,0.019956912627901082
SYN0292,-0.051802401495472286,0.031779468745013646,-0.012381352729290982,-0.061550793889120825,0.01409067097547348,-0.08787209141548494,0.059074267605253444,-0.03852565744065488,0.0446270345273065,-0.025152516199338892,0.07777538626551166,-0.018718897067851157,-0.027575972334043568,0.019533747698060273,-0.025953982753784827,-0.05615810385132048,-0.026626176588564223,0.0370428518775588,-0.0027067741167656613,0.01596168875437054
SYN0236,-0.013950540209518584,-0.03887195915095514,-0.00815898641339716,-0.04357548946091792,-0.01931889199155289,0.03209396118116342,0.016882486071029445,0.07395880735200848,-0.021733766949148213,-0.06411723827371502,-0.06804632596643635,-0.0038326234885949577,0.011707547423969828,-0.010549827423262041,-0.09923766886985717,-0.038989626216194735,-0.02033148402835754,-0.028754820018124055,0.010629889770085806,0.04222381125918191
SYN0454,0.04536762491035967,-0.017713590152683766,0.039096588198092405,-3.112154167469126e-05,-0.023577319510252708,-0.05246097616358748,-0.017884342149929455,-0.036046893695854815,-0.05532936634274759,0.058412122428504555,-0.041506004217719314,0.037012312602105586,-0.024106374838585843,-0.022285274550689706,0.01332898018315354,-0.02329190977741619,0.053190707508022336,0.01189828650814245,0.01642942551353857,-0.0057332338492215645
SYN0108,0.00965792775700682,0.06805300351805334,0.052151934673882586,0.03128267898895737,-0.0069714846762000795,0.04810130183762195,-0.0432614976805483,0.050729575625116714,0.05582886249509468,-0.04642701076404119,-0.06447959600736694,-0.07528493733173881,0.003814424891678444,0.013607199578368165,-0.0003941936990713722,0.002671781479516867,-0.005438160926424138,-0.05362094527085268,-0.03022984900761018,0.031305794002428174
SYN0368,-0.03151450588355237,-0.16214428764302527,-0.021283815693440435,0.006149885657188459,-0.06975881724150691,-0.0743803354799286,-0.048447369882162895,0.004695839861102417,-0.028897356949214945,-0.02186203633520307,0.06095671765449872,0.03141811308855493,-0.02345274761864171,0.026574910557576707,0.013980473217500214,-0.03970069850826576,0.03930891381044805,-0.01068978863160477,-0.03681111096185404,0.06049288133658942
SYN0116,0.062136093149567105,0.003259187384762013,0.09203175827413528,-0.006664067597433869,-0.001525022496392048,0.08655679108803797,0.06248381713351156,-0.015232059839075458,0.023897236426318722,0.008445102026363125,0.03095705318444148,0.012231722581904997,0.08981989700343364,-0.04212672932537797,0.013944469969923646,0.009401957232780807,-0.014197281219063362,-0.02016641360295382,-0.007759980618752403,-0.0023153751421181026
SYN0281,0.006661169979260122,0.03789985177249874,-0.0272625491822829,-0.056439356056999256,-0.03238670190625662,-0.011619177198980785,0.036772122984487426,-0.044281586900677135,-0.015203432874553016,0.012124658559395747,0.02630462627798815,0.0549756733309199,-0.017586117585474226,0.025137157038116194,-0.007087785271129612,0.022100562481939416,0.053379975424177516,0.02252696989638358,-0.053346881302619865,0.04474136533247582
SYN0358,0.012657972751917601,-0.0008655302356382516,-0.006696267879598483,-0.028971367734547507,0.009276727752129118,-0.023808975555841144,-0.08319962209504536,-0.024869851083907792,-0.04773925068889522,-0.03485430576247137,-0.053071171559035187,0.012737157893792254,0.05989762048628317,0.003396169620814297,-0.059516494868223115,0.01942419956669722,0.04327356938529346,-0.014952954691532384,0.07236093451785722,-0.014873756691308986
SYN0186,0.03588736744962393,0.02556963096601826,-0.008575945828597123,-0.049313878011309355,0.09452671764315529,-0.008368903241673222,0.03502136165024053,-0.029546737741007537,-0.06900441979201462,-0.004449925978572274,-0.02692352902707865,0.018639138033745017,-0.060823827176702996,-0.04848243165645236,0.024827848329791413,0.0006372664677918895,-0.06747306680600537,-0.04081574296500218,-0.04521006160937652,0.025452871937581098
SYN0328,0.01139961793588983,0.00456308303671972,-0.06558629863186766,0.0031917642059936875,-0.07079026674742388,-0.08535802808937845,0.015174256726918502,-0.04936273939390161,0.02230695026685369,0.022165860799739097,0.04703837687955702,-0.007955274722658516,0.0722789056381426,-0.034064226409049235,-0.0055199226014557125,-0.023781192376467798,0.013258624133758142,0.06767553545672846,0.044007156296087147,-0.029355661325063134
SYN0054,-0.05109535749342174,-0.04203738369999075,0.0072555163759374045,-0.03637653936090813,-0.016266617111882223,-0.007987099184729434,0.01479292694550428,0.0475476735086454,0.03240815787942088,0.021749780934241972,0.02697171632394521,-0.10253568499465915,0.03497975493019828,0.023582014317209566,-0.022777806049694104,0.04661068200237703,-0.02257407036601616,-0.015362974577316118,0.01945650848896709,-0.06533216312628437
SYN0218,-0.012124944539195437,-0.032211192301546024,-0.049025201539825765,-0.018855184109197794,0.06227999033517814,0.019136004711827765,0.06526377252164156,-0.015074169944222148,-0.017515992615277913,-0.07512844837685514,0.06389237477304324,-0.024684071883151196,0.03655017950030909,-0.03398460075317119,-0.07734185309420978,-0.06255262100034095,0.053823508966420935,0.028883145321596172,-0.07861013769633493,0.020235284523147372
SYN0487,0.05763233481196497,-0.07279712797055479,0.0651053756444996,0.013851508462456596,-0.013683430244881955,0.005586977668292246,-0.08325026665078045,-0.017328916363498027,-0.03630220492045592,-0.01013378450855466,-0.05497912209433576,0.004014605484642072,-0.01955146584240523,0.05989326971937123,-0.046535208249919,-0.00118761998515844,0.015171914411819197,0.04420753088798075,-0.004972959166226021,-0.04156772787498758
SYN0052,-0.021196287965959227,-0.025416145870156535,-0.05998694490705057,0.11643541166130933,-0.0010592799698113447,0.057843606379071995,-0.01632610746509907,-0.057015770027447704,0.04181857553364191,-0.044871547526218324,-0.021990838666644804,-0.03832650272145055,-0.08538331652516357,0.01683661011528122,0.05499032230066105,0.01653738158726011,-0.003845776022626767,0.019307146278324226,-0.00488425106216548,-0.059796458285235665
SYN0341,-0.023894711937896867,-0.04605187570151477,-0.10010423363061016,0.013311066154190466,0.06464661218999536,0.08300529443333114,0.011203007285817159,0.032144429121131704,-0.01483446864226542,-0.03039566949054631,0.01413997038955233,-0.050362202763616,-0.020419727192577466,0.0009086759502842018,0.03756200300869518,-0.0002482996629431715,-0.01783427371238168,0.0028479562369118786,-0.002388685623699064,-0.07329467848583311
SYN0097,-0.02448007256670764,-0.005253845106507662,0.017618307410737822,-0.007080983270473378,0.05465260848356765,0.04207214790482732,-0.035092182234385594,0.01579273087155679,0.043917335190176036,-0.03819819040024677,0.02746297278802982,-0.04733758702784245,-0.009694926312587619,-0.014285110820881863,0.043605454486851776,-0.10647439885170511,-0.018923231058727258,0.012399215390656795,0.01278418841283015,-0.026843793732261544
SYN0377,0.01748142089473424,0.02882256824819451,0.050874924094431055,0.015356473342423684,0.013447610815110691,-0.020256800346315582,-0.02346657438459949,0.01596712213668858,0.020378061093596467,-0.009270888900719903,-0.08375651729737783,-0.11833329547888873,0.021320620898566584,0.0047375341760530956,0.03901100125341479,-0.022488228810635648,-0.056268377169659184,-0.04448722853102493,-0.03760233296094866,-0.02133659980040461
SYN0447,0.1119805488105622,-0.014833266178387126,0.028403035972912997,0.027942854694676098,-0.05498146879327228,-0.04585938753299588,-0.033610950943267257,-0.03132226411602739,-0.06324164197432591,-0.012399635885905643,-0.05744429792320566,0.013123963567054796,-0.011690823975241972,0.03630256990095962,-0.033765164827460954,-0.0268050314688341,0.0002813484576745679,0.042606653974122714,-0.041698751969073425,0.006965334985573871
SYN0198,0.052053591972579735,0.013138432057373296,-0.007106361976879701,0.046262520095627424,-0.01928314238637844,-0.004552789634050425,-0.030265025430256397,-0.012440370306612991,-0.013727935119825658,0.04218316852541078,-0.05897208534278904,0.041136477275563355,-0.0010497550733424318,-0.009234888854629102,0.006121394167642091,-0.021171284354947403,0.0005575486466733846,-0.05794720946487152,-4.148789109002111e-05,0.010665527199677671
SYN0246,0.022868126580257758,-0.013981757475050226,0.00803172083138726,0.02214126170412035,0.11324928678857456,0.04388340012751502,0.05894494446761358,-0.0614335030547771,-0.046945068345755236,0.003665482218902675,-0.01979112880023056,0.07946749413788004,0.08736642732128884,0.028810776926699096,0.04937358951579263,-0.02090940765481269,0.038264291199210494,0.03215327915695329,-0.14926598371898903,-0.053241456787255656
SYN0226,-0.038366368664967426,-0.021172532057248495,-0.05650799405792635,0.09827718308270121,0.0306617822537937,0.015415596755819744,0.06130015050157274,-0.018842502634500314,-0.023607327062825076,-0.015226704467784333,-0.020194534159662873,-0.013002338396127093,0.03142764523475893,-0.11813175552087125,-0.00911189012236483,-0.07934323697072496,-0.03780748350868226,-0.011187594429836885,-0.010783093340299721,-0.03903799522754456
SYN0001,-0.070958494953519,0.0012029227006586354,-0.0009823224495781548,-0.020913015549910638,0.06377769504966668,0.016028534199694838,-0.1100223817271948,0.06027713997294615,-0.030826815804261738,0.05334520872769992,-0.04255822954199366,-0.036280500035406046,-0.02019198996596171,-0.014398261711414699,0.02283715054740344,-0.0030939517113609226,-0.029239286650193347,0.070367628614523,0.029209322407864828,0.04043534392020025
SYN0250,0.0733795765991934,0.0012126105262419348,0.05373055113190443,-0.01007236716055609,-0.0016263081469595697,-0.012895246602698904,0.020773261104746654,0.061480057946565095,-0.044672424724757256,-0.08384763257368896,-0.014795283621779615,-0.023451665998840722,0.04191138660743175,0.043883342092430215,0.022794938881314494,-0.06103400161290091,0.029324957093186017,0.05645493073301278,-0.049556935436401515,0.07741345842207127
SYN0391,-0.055178928089795555,-0.07022985635786046,-0.020634452068036078,-0.08760623507717201,0.06400988343011828,0.0003783987624949488,-0.08905460220790713,-0.13483408012884204,0.055174430237416916,-0.019515650177519033,-0.010263598986434112,0.050001015794409735,0.008332090612056598,0.027382336689922838,0.17217935441913795,-0.04006138568021135,-0.07871394533376577,-0.08868886783518899,-0.01349268134520166,-0.03211461690185683
SYN0192,0.00885040439739252,-0.025630741730678204,0.008485043752911797,0.029659308935224674,0.09251532752655245,0.07933728613026811,0.04255074193206345,-0.00999674884996267,-0.0161059625667085,-0.02131960393743553,0.0446569216814878,-0.011173568242315362,-0.0362331418233544,0.040349397700983516,-0.03217464386371996,0.0017934444583943977,0.0045583804295288854,-0.019359373003849767,-0.018792259194650125,0.018399571129925404
SYN0465,0.04081155893635433,0.022595092123021323,0.0005975708847311331,0.0774140831609494,-0.08639032233259182,0.011793296210877007,-0.020132560680471957,0.029669941512387974,-0.015512404167415027,-0.026700156013471532,0.031276736840486485,0.03700622894823041,-6.733685143086148e-05,0.04961188615124257,-0.033113469255674814,0.026486288317166852,0.012991327794549838,0.026641075409906775,-0.018188025791704632,-0.05074012636482806
SYN0081,0.0633314517031263,-0.03383651182864358,-0.006973810307057183,0.024803733851431163,-0.002713390939607497,0.0029212811329087833,0.004508883441977716,0.055703848985646766,-0.017019792637812316,-0.05970087342347118,-0.04873674549145176,-0.04792750092400176,-0.004575552599136199,-0.007733182278864635,0.034817194085652,0.005175605237914465,0.003189308561164943,0.0013315398137385237,-0.02070255740097885,0.0025373638899755325
SYN0240,-0.06048085146007748,-0.06937939360745152,-0.06150380640081255,0.07585567302449135,-0.06978905118170196,-0.06622375460702165,0.005988499962537891,0.05036183482212446,-0.01161731370782632,-0.045197002291115396,-0.02870878926542435,-0.0446925781049522,0.05962753015886725,0.10170536055957369,0.08002332989192172,-0.033480002595511274,0.052272653040330144,-0.061656745284504225,-0.01581519297491794,-0.02857086520963347
SYN0056,0.016793393339530546,0.002873350468590893,-0.025129774372992637,0.07755253719385805,0.09255092675735997,-0.016268195680963455,-0.004687831728710742,-0.03581222577496666,0.09001497414615349,0.04427587322578011,0.058463468795366146,0.008081750438716517,-0.01666616997775866,-0.07324936780099991,0.0368621029997519,0.04728565359748915,0.01881742810983315,-0.006455201070315708,-0.00142785161280879,0.0028649296842733077
SYN0435,0.014051979496614825,-0.006381478608715677,-0.023406191384982854,-0.007231727161211519,0.030323440153387546,0.027801579698274306,0.04274405359954642,0.1336991665702633,0.038626126432377374,0.013264319895593273,0.015910842338547948,-0.028465168353753754,-0.00831847090910932,-0.08331585728993463,-0.04448303565081571,-0.03225805451802452,-0.00423137276634439,0.06019997635034028,0.06829363494055804,0.034543607827321555
SYN0470,0.02131552546980674,-0.023496725538562482,-0.05463426591819058,-0.007664929737923309,-0.01921762170809786,0.03963719359677892,-0.0008713236348961432,0.002855089260206895,-0.09665952567831022,-0.041531441331859056,0.05747984684184608,0.05998394303581735,0.033356107416795365,-0.09183913402251224,0.011278537581262633,-0.020209408547688802,0.06622786041204054,0.04548385331467227,0.055156042620131955,0.029247496123171495
SYN0379,-0.06184488369296928,-0.011756912031821703,-0.03606758752862257,-0.09550610701754286,-0.0674833462195082,-0.01220151259288339,-0.04378722628986358,-0.014053653954538784,-0.0040848893517073295,-0.017599581978576462,-0.026085069223492525,-0.024094579650573152,-0.06854623334148786,-0.03778295783578754,0.021893940636408173,0.0869088086672932,-0.028620405822863983,0.00821940536198129,-0.08397824098912525,0.003298106982465573
SYN0296,-0.0005762928325388476,0.009450414772479541,-0.040665421537589334,0.06903629131724708,-0.005410748061217438,0.005053363295971462,0.10759461664637962,-0.014765938765142626,0.04608608722817684,-0.016956688407373605,0.05788148690379488,0.1107207971949955,0.06446537118905767,-0.003503158538521113,0.015188882837684006,0.048774009459517396,-0.08383783234983665,0.027012550763680834,0.07977987739532935,0.0743273272001664
SYN0172,0.014328838141696464,0.013167458728773847,-0.00040836221450573994,0.11256037618319793,-0.004409108688552061,0.004671429449246375,0.03163822947799866,0.04955669628583751,-0.022302394885184252,-0.11430770379504608,-0.09076312693953348,0.019019965945271312,-0.02426876341087703,0.006174028088043234,-0.0024789361077998803,-0.04463020665345869,0.011342327172322178,0.025601851116680303,-0.002018372851844097,0.044911478758590584
SYN0021,0.0008849064343195725,-0.034769894538530355,-0.04138409497455658,-0.02668557857829008,-0.023250021549339733,0.06756421264278947,-0.016470557978870166,0.015338580532796185,0.08257117627593105,-0.05153616579371312,0.01986389284059244,0.02386710924026551,-0.0017819785110074755,-0.050259745184684124,0.017177898846377042,-0.03762457917198562,-0.023859379187470484,-0.0004994592701271813,-0.038908694130031646,-0.008876162262460865
SYN0467,0.07292472157826799,-0.029585495316310145,-0.02840132088958437,0.04626565231543867,-0.07017391201282881,0.016088993795378058,0.07250266078015416,-0.012780120765158292,-0.01947649283498089,-0.03823985030568813,0.08712085821396685,0.044866031489900315,0.10556439147618747,-0.05572530339817465,0.06339252412430776,-0.01828194204797501,-0.018312445458574963,-0.029620786054368357,0.10497396426089618,0.0007230759965525407
SYN0398,-0.005516503026584427,0.0030695709226623374,0.024803726834051666,0.004521163940617936,-0.03052538881751742,0.04913232439418839,-0.04824560041545797,0.09762676486624133,-0.026827049132957543,0.002136564016944219,0.02040592848711696,-0.025714560376539665,-0.016469671771447265,-0.06327994994069842,0.05399042098675835,0.03336648089391077,0.04696989701673399,-0.058452097620980775,0.017135275938917366,0.008802205416957153
SYN0497,0.08155463590652923,0.01933434702024626,0.019321715843558126,0.01291173242954493,0.03322015870881917,0.0044995636947097704,0.061632007491924205,0.003767014092695682,0.020195824784473654,-0.023778717597097734,-0.08211779539381554,-0.00770482711709978,0.030973060638006977,0.035662027961214704,0.0019472273761354066,-0.04086228926830915,0.00845580422248577,-0.005016551075377207,0.039568424394312324,-0.03566429679998463
SYN0365,-0.045410060184333904,-0.016395687078356785,0.04462287727082198,-0.07073467832121365,-0.028519848059771567,-0.0541892288697062,-0.010268871229219035,0.03292047075956916,-0.04380603773599891,-0.001404180043070692,0.017218355901294075,-0.07473492007420195,-0.03753955162949795,0.015033062924127235,0.024574001988394725,-0.03512723501011942,-0.10106429121758481,-0.004981761987749442,-0.028132889725999914,0.030012046445618844
SYN0167,0.0024968511779212476,-0.03178306285717147,-0.10326478186814841,-0.004541286015842398,-0.005317401082208829,-0.03438479120563073,0.02087622444350516,0.02053656383252755,0.047868363954012845,-0.08983874554391875,-0.027552764580171477,-0.028320006341109236,0.04490106730122602,0.027240434956780916,0.09250623282830854,0.004234433162458073,0.003342517381252788,-0.03853978876038428,-0.07891070637043611,0.033762582445586165
SYN0490,0.03056616419446019,-0.017196317572444067,-0.012716923185194554,0.043769481054328825,-0.028676244830755915,-0.09171908130995302,0.07693323247226257,0.019885234472854754,0.022012143692229213,0.050374556493474325,0.003294408034003491,-0.022448496639963046,0.04535465710078972,0.08696079744525431,0.00964685779107145,0.02457531543736972,-0.03994952532159681,-0.001811950618424839,-0.011403865502256348,0.03166251547514005
SYN0455,0.08929175298675249,0.03203770054125035,0.043211952263220874,0.0035079418029862488,-0.04792521366517619,-0.05280482946361775,0.09049693239243353,0.007622418629687718,-0.020188301726073835,-0.013208387479305415,-0.04097673293228379,0.030658690686185028,-0.05490655720572634,0.03632743916443284,-0.05007545631837994,-0.02351199198311959,0.004692646440619345,0.001932575082545067,0.021945739286890496,-0.035582659636177134
SYN0165,-0.0018784392804010173,-0.029472828347669098,-0.019935655085061798,-0.0017442277409663723,0.07221135131411123,-0.014752972401757535,-0.04233849092422633,-0.04095346572267921,0.04107212673982068,-0.050261980637291134,-0.015228557549251974,-0.01411696042630017,-0.040701615299612796,0.005435794855474963,0.012362738419491842,0.048950301315131596,-0.027002665319747307,0.015199928174944956,0.05134556503257605,-0.05640309066220593
SYN0175,0.0013243396841549628,-0.07360333340191165,-0.015588016994457039,0.03162568347416177,0.009694428262722323,-0.013061607857985765,0.07292630568253798,0.011035708847553494,0.08471104879540595,0.03824496360660959,-0.09726839955970508,-0.044486339716088286,0.0055549901055946425,0.027278045812781697,0.02110656324347326,-0.0034601978904711416,-0.05140989012042315,-0.018039525039660956,0.08094547382815118,0.06338891748894888
SYN0495,-0.009825297375723015,-0.04882947039733418,-0.026771001343859707,-0.015339465705557685,0.008774833494387554,-0.018679464056727418,-0.001297260690273392,0.039971265289704266,-0.05878036951118674,0.04826082475805469,-0.015784772964799104,0.004773155373763892,0.04990480163964874,0.03912564237675455,0.005399775032754202,-0.018024224967364087,-0.0058412779720235525,-0.01175467698585538,0.031231355490781532,0.03502233350209753
SYN0290,-0.03200293311744634,0.07020655998386054,-0.01515422722802405,-0.017245278311695093,-0.011858124994861287,0.046278813773888365,-0.002140073615083985,0.047961593230553115,0.013710229550630426,-0.08556476294118771,0.07292286796218218,-0.04377878869749296,-0.06712751162328943,0.03485686865349678,-0.08006886874606066,-0.02473625735620999,0.09307876919872902,-0.007525623922962697,0.06188199866079974,0.01856598452676283
SYN0145,0.0006008814509758389,0.04562255612886505,0.06297820361603346,-0.025912583369944134,0.018772073788805705,-0.014572018047684763,-0.0451219955080817,0.014924011518555684,0.05050783301686211,0.014399422947872404,0.05893894884675855,0.05727208456187826,-0.012175482547935202,0.10453399834516186,0.03531572782888924,-0.0027151976037804015,0.003214821350610702,0.04591156906926183,-0.017833359159021546,0.000530494770812901
SYN0034,-0.12010670379876223,0.022911388134207757,-0.04594168886091462,0.015461931652083543,-0.010872532027965318,0.05826056560716723,0.0056401031960093525,-0.012915543383350088,-0.05153070359571567,-0.010749964046170422,-0.0617209183132448,0.02546021546918311,0.01322735692874242,0.00217189985170034,-0.017772021746390886,-0.02836907303982177,0.0103937176237462,-0.012426084759193917,0.048466607277807716,-0.03447037763196225
SYN0177,0.01721078270298495,-0.10994981523620932,-0.007961565487311006,0.007740802708624771,0.023985919447121817,-0.06164484883057701,0.040320786831680076,0.04567227615654742,-0.02789913042161334,-0.0791712560880356,-0.06861960603239306,0.013199287836228608,-0.001881065894664232,-0.03457085990867731,-0.005525865873346848,-0.0771185203350013,0.021795050537483276,0.010686229354796004,-0.01451701194597332,-0.04524905496131706
SYN0146,0.05173366057208302,0.028272731905317195,0.07554391045791438,0.031137462989512133,-0.017275507606572385,-0.04606795066168383,-0.11205940954012815,-0.020938719049219776,0.06918356606216172,-0.0438753216046794,-0.0076698038162079695,0.15359159013661772,-0.05643337616613492,-0.0038204454099479445,-0.0023339334768678896,-0.040475615619236315,0.004824316879248905,0.06706491481050193,0.0019523873866179548,0.054955533954441485
SYN0169,0.019901944946848306,-0.04602117715698974,-0.04209243934335284,0.011435085391029833,0.08699697934632251,-0.02976453363800882,-0.018156973402624125,0.045809653109508304,0.0297970487998982,0.10909578428123014,-0.019073076162558236,-0.018468602735739668,-0.052362060425380164,0.06689899540700807,0.018320008134642088,0.03870802421486755,-0.05738687868106443,0.01857023175493535,0.0010833135961090474,-0.02671229961608896
SYN0101,-0.031159516550690623,0.07420612387946739,0.01667025352054787,0.08070179668112226,0.008479806178623431,-0.0391536129353817,-0.0022930815888410638,0.012858875899414373,-0.01397919339222327,0.0744582996883265,-0.03008106028676016,0.04677127455391376,-0.010434307334544209,-0.03798781113276348,0.01223184968847282,0.015759576486471815,0.0740288332779546,-0.011082669606870443,-0.038640935830367935,0.05518868873717552
SYN0254,-0.01252798010275554,0.031644040781089934,0.005259892602896301,-0.04603769754118128,0.07356022569716573,0.014273262712192054,0.0027330401988870656,-0.058038206842950475,-0.02494054611010203,-0.01397183186497489,-0.07155477335712719,-0.02792490950792776,-0.07548290316699974,0.08430429100215961,-0.05107151604265281,-0.038197937720169384,0.016938136443080096,0.03789845924255642,-0.011922642835282094,-0.03405100215558629
SYN0062,-0.04986514187738543,-0.12450482919894366,-0.09562707820565332,0.057017704913898494,0.014473191391579616,-0.018703027179529225,-0.003636125371751479,0.03906021407890708,0.027487185093314895,0.09041460337993136,-0.005290361322361534,-0.039626208041127216,0.01905504697117028,0.04290159375903237,0.020362275160618865,-0.021651900285252827,-0.032235567604116055,-0.1035198475035226,-0.005401538554405366,0.008392426050767617
SYN0303,0.06821581922487054,-0.10943447617176909,-0.0341711148442994,-0.02160888072960318,-0.035781923099904606,-0.07383314711655063,-0.03460857932104335,0.026691002483143537,0.03494463815696569,0.043586382899205606,0.027555806647274975,0.0038305436114694003,-0.06489205524046196,0.024915801463470093,-0.009212465548668695,-0.010865963404003977,-0.06952082692968535,-0.02564101520025881,-0.028561150200453675,-0.03220265978582378
SYN0139,0.04809126970454193,-0.11489059550227244,-0.04480982595050443,0.031229692469534873,0.02120805711380667,-0.010800799357266784,-0.06019892360898099,0.03943514252409031,-0.03843966857731457,-0.00438481336203454,0.04672120542349328,0.028487603301451142,-0.02631758838625671,0.017545628808644024,-0.10083110371370939,0.02755928589448894,-0.032312804044748795,-0.06760581390877048,0.002270418122218346,-0.045852794454480546
SYN0132,-0.05281976261325242,-0.03873428262787786,0.04594449155125667,0.07246649508069972,0.07235741211482673,0.06702885625440888,0.015505408086475318,-0.010904485560090528,0.021701412804301733,-0.04018025718995825,0.09132959560193156,-0.0013697861447348285,0.0017519221163987055,0.04978098797928374,0.03925672925620598,0.001693166752823469,0.018679332902789995,-0.03784139072704017,-0.01470447714315749,0.09220334148886875
SYN0274,0.047458119363557066,-0.027667312692173467,-0.01338094742456106,-0.03439806870388121,0.008203201805464026,-0.07003203002588436,-0.01557951012081047,0.07217582413399623,-0.02512532722306676,0.08067137121788075,0.04805611832135675,0.026485979581130054,-0.030503480767537526,0.0007220497315155664,-0.020797032302234383,0.0638477036526799,-0.04724225765971692,-0.013349080473651903,-0.013545330821446074,-0.017234164823469716
SYN0469,-0.020981486248358765,0.014649656860026268,0.061749943954447356,0.03786165816499102,-0.009863648634409097,-0.07629832652315825,-0.051748933588696006,0.013883109725388034,-0.07825916171316782,0.07845884468031614,0.020424319256582706,0.0018919912723579576,-0.09199142477952514,0.009720672438708569,0.006595837320413502,-0.08795977755918599,-0.044607719578605196,0.021779862017389528,0.006812505719041973,0.024429143997012757
SYN0456,0.07064964319251961,0.027219964557448812,0.01730395320495911,0.02404283775852722,-0.06054679217595822,0.0523668001314666,-0.01845055743955383,0.030244971920609855,-0.042383737639017496,-0.04493129157728577,0.054233508650079414,-0.05592620856477666,0.08855975041949263,0.012136968476809463,-0.027386654051417034,0.05783360786005249,0.008846341957720301,-0.08247831077128784,0.03095982366783564,0.028391243480442207
SYN0151,0.01126294944059207,0.0258018832566449,-0.03320693542936601,0.020775428590217908,0.07540835119854983,0.03172930783081615,0.016897579389947785,-0.025489155789628192,-0.031300005798864376,0.05126511664542458,0.02200160757154569,0.033974518636912296,0.08246276807133543,0.02559609753051063,-0.0034476706929717745,-0.007306098494067631,0.05096818099736909,-0.004727037265665041,-0.030101131162676306,0.006915346126255286
SYN0136,-0.0009352804680218184,0.06963516189613585,-0.025474503403020533,0.05611749857882797,0.11918107785608212,-0.06019292609964203,-0.023329609658411535,0.08289037535024917,0.07697926653742866,0.05116564698157849,0.041148761827493545,0.035518681801811475,0.05244926100864348,-0.06113440771709824,-0.009510832776635506,-0.007315925038471246,0.030923814392516586,-0.00287274922679071,0.05721950901419711,-0.014367903321273558
SYN0306,-0.03789292489056705,0.07866208247791101,0.0043997742567388415,-0.014202968230033548,-0.03518861440181443,0.012824692793508723,0.13132773904917283,0.016335570271847028,0.0739782823980266,-0.07670997943272302,0.06421324628919477,-0.043311877653042785,-0.05655157515717332,0.011872507028468295,0.020839364300447895,-0.03992200440090527,0.010829879688308524,0.036796582339648186,-0.00941936193222863,-0.0011565257701273398
SYN0406,0.028805969737928035,-0.04654774904766516,0.039477864812839464,-0.01515734559358702,-0.04378972266200568,-0.032557217172745366,-0.045100323748753654,-0.06207035791822069,-0.07917673843726467,-0.04239583072831167,-0.007593543372198421,0.038751074542996665,-0.005916496228513077,0.019866049018988214,-0.05026280323593102,0.015588256236711935,0.10340710047740874,-0.043241412125913585,0.019272554838575953,-0.03529946352203891
SYN0308,-0.0037140554034756127,0.08925606017803508,-0.07920665903771679,-0.014356548959081285,0.042605043960954055,-0.03813297336765703,0.0010116722526280616,-0.03278812938124853,0.009116862218071469,0.07499115510831493,-0.008604697201419223,0.06423725371564562,0.06991556379946827,-0.058062825160574524,0.026414631926002477,-0.009413074241390026,0.07347548037890124,0.009681300411942241,0.0013945391642536658,0.0800129090152972
SYN0141,-0.023571519856536292,0.015972907588553367,0.03994892843480548,-0.0008091993876800509,0.025116953512277232,-0.03457198869291971,-0.021031044654137347,-0.008730453813025778,0.03812637921580903,-0.01756987506856612,-0.04453251973044758,0.06301888200297255,0.0012530421905854387,0.0018353569321512748,0.03391754975724268,-0.011246819334102324,-0.03336458133915453,-0.002565729888250022,-0.08676681373414187,-0.03744650271296623
SYN0446,0.061878234681829083,-0.01827088307828193,0.025826283882762112,0.06734785610112953,-0.0025733224139615238,-0.002009327220856503,-0.017378224583484463,-0.07940468201702824,-0.038757027730583885,-0.01761873502897313,-0.033103218467577925,-0.09220074778442128,0.014528899140503997,-0.03750003829975564,0.019197053711230323,0.06516174029558319,0.053097666864001164,0.024713241944840564,0.040596476972712986,0.06841396668047564
SYN0084,-0.02803002540051902,-0.06699161759602291,0.03382303845934909,0.012949248646234812,-0.021998569758316867,-0.057670515459879966,-0.06049533325069932,-0.010124169176689532,-0.007181386461723154,-0.019752312700456003,0.07047383204029248,-0.03449638845301987,0.010454026829927037,0.029943209422971618,-0.04415152997593829,0.0181807592943707,-0.02804189482329273,-0.08072063888439233,0.04974538386728776,0.03641734180043165
SYN0416,-0.049596230249176525,-0.0236392009004129,-0.047065148394187004,0.04546183714995931,0.005817580328520799,0.05695130428459943,0.04099565490101128,0.05559065129448661,-0.06463652244886424,0.01407079077836134,-0.011510034064142409,-0.04935874007494384,0.043009098264754325,0.004503614148077636,-0.0387841674388172,0.0005776329740191169,-0.06104388920207201,-0.013575608835803048,-0.02717034693197293,-0.03572514998174037
SYN0181,-0.0026334403776829313,-0.013822801250081115,-0.03835919019563983,-0.003728259493988545,0.06895718313112333,0.014633916146337212,-0.053773909010530536,0.04748101677524057,0.10238288710387532,-0.036086895234031545,-0.02898416587131511,0.031071412617976336,-0.1059920634422891,0.02296906110207991,0.07250363719055225,0.004775868548834554,-0.0004795205594792556,0.03920955143199125,0.029724857223204976,-0.011243371612648831
SYN0266,0.02157858264160093,-0.029799529508304473,0.04266292389402272,0.04910982123493619,0.011706834557476632,-0.007552532213406776,0.06431355534411838,0.03953682782692875,0.011988361710717257,0.0026784038114237834,-0.05567245500134713,0.002865582651854761,-0.07392057357196571,0.053400375257307606,0.08280744803313522,0.08873747423767506,-0.05427132452844908,0.02677877247999028,0.0009946576653572128,0.09110632070803848
SYN0426,0.09952784062092623,-0.03734016931957754,-0.05347748159005735,0.038899976180244586,0.08106765772224092,-0.024607549113499983,-0.02096431339584551,-0.10401473977840021,0.01157230760338763,-0.04380114060505267,-0.05146698695471144,0.07496022266229842,0.11149959882017131,-0.08912578213096266,0.10153513582335427,-0.03738520182577858,0.014407323236711119,0.03721444873321006,-0.019469798281710176,0.034366245287519616
SYN0253,-0.017530455720954633,-0.054086197906214946,-0.03005728531621247,0.008151829226544505,-0.009401833686380224,-0.009413543666078529,0.06809638836051989,-0.055655198848300634,-0.004558611223220352,-0.07242600779094384,-0.005902340163823928,0.047019027530185324,0.02722028690226137,-0.04622958232149608,-0.07437298220897437,-0.031044402760615403,0.005149288122715419,0.02128775879635033,-0.02526867982971125,0.11206190913586465
SYN0322,0.04416226289161256,-0.06954081789072965,-0.03535176008277299,-0.035947569366591464,-0.06654201036560208,-0.0031187517720718374,0.04444815017578593,-0.03560213243200277,0.05648429586263696,-0.050949813227895366,-0.023737241040977207,-0.0014693821212883563,0.020119874071713596,-0.06412839356644827,0.053808640574926916,-0.08681280340387301,-0.06449474516602863,0.013796396384566522,0.06807133926784954,-0.006154761068766995
SYN0477,0.04327298752209173,0.09402552728753054,-0.03024442483344741,-0.015587113847239587,-0.05024904310563756,0.06355075295607224,0.004652350394821791,0.015615920534786751,0.08517233508060384,0.07904220221341919,-0.005758174727275679,-0.047654375195235826,0.020298962559751266,-0.008572431374250612,-0.015057647790620245,-0.0008568022479821011,0.043377197489251056,0.10656923891882708,-0.014804995441023273,0.051781889077850626
SYN0125,-0.009585620119325037,0.08237273664559806,-0.008376086377875907,0.04316491613866638,-0.006329925782925902,-0.08678709181183716,-0.041871642617170406,0.054408342847879085,-0.003329970997001077,-0.04435297923463109,0.08067292522803116,-0.019184732509974413,0.01930072292732744,0.06442493303233594,-0.006528066474697118,0.07430748745608202,-0.01567368857944917,-0.03451072416424452,-0.020660830710295678,0.10684643783523702
SYN0331,-0.020747626362830025,0.037387589988280914,-0.04170637674571288,0.020292729078461927,0.016490480643779813,-0.08153224263347475,0.03502971636319376,-0.022175817817102258,0.007670471695294863,-0.00016637006743301666,0.03914775076202567,-0.09185079517523471,-0.020731737818065425,-0.030913749043357152,0.06549737273595946,0.026589055827963358,0.03258583737898281,-0.09935842828266005,0.07587463850533202,-0.03297636843842362
SYN0223,0.013601671045192356,0.0034804603876627295,-0.01924319337388273,0.030855636351912696,-0.00608030007437999,0.03938410946197511,0.0300041576971361,-0.023344964091241583,0.021417603092517334,-0.0023836906857988608,-0.0010721964374598616,-0.008211010246437793,0.044498922053071696,0.03802921606362056,-0.019308418184798174,0.10907766584005404,0.005234557905152741,-0.00069139085069421,0.015543603492598847,-0.022474042486817274
SYN0092,0.0877253491071189,0.02413551255291002,-0.014350962491028648,0.022516945028332763,0.051989548903613084,-0.02969635310500954,-0.009268119425850532,0.02841356969051118,0.03099314391346358,0.023043240108140815,0.09396908907681979,-0.1080019934629385,-0.08580589416835402,-0.09763270928424193,-0.012818880578181409,-0.0086722781428791,0.01949081145105608,-0.015375728749201088,0.03174820617810634,0.0071044636075231
SYN0152,-0.015093848364989244,0.046028517397735946,0.06815403244320495,-0.09695089304676195,0.006996926257689093,0.005385512146324325,0.01073376207330534,0.02016023380795198,0.014058789340481572,-0.04507973261830396,-0.030352675566237542,-0.023261237020116267,-0.022577249584531566,-0.015691687789936758,-0.01609577738201864,-0.03951459985118278,0.011728344931071985,-0.04569991239772176,0.0638513666463428,0.10665427246155351
SYN0374,-0.006637981412413342,0.020688970644831123,0.0978204374555841,-0.018536526050149695,0.04097187134562819,-0.037637859988121705,-0.044214631603039525,0.0207034111110022,-0.05025446659349057,0.06538599576309014,0.013461442731087469,-0.04658825887790133,-0.025811733674901492,-0.04906774073364536,-0.07098621973178183,0.03342910417437672,-0.06400514381292467,0.002143531981410169,-0.011199515666856811,-0.0486091651286917
SYN0352,0.04352572480318017,0.005187756166528496,0.006911158650809969,-0.00019258873827911392,-0.00062408716403844,0.01740889846227424,0.02074511647682259,-0.004119181284061279,0.004646314575670404,-0.023125927577256178,-0.02715396500801291,0.00983190302645301,-0.027897052678186585,-0.03914197814157803,0.07384023062209796,0.03625557475596148,-7.46016691163335e-05,-0.00845423228331533,-0.07732735111512352,-0.012157520762044594
SYN0045,-0.06654737769124076,-0.02258951513796242,0.01584509680109611,0.027336335296938945,-0.011238266090240636,0.03763469231670773,-0.013428133296669436,-0.04695592083370744,0.02634709705333521,0.0100545690018152,-0.059636615529016765,0.11391880919801872,0.05288026376519221,-0.02690474078561893,-0.05219585444422726,0.09273363709276049,0.0112340125957568,0.018852510261162154,-0.028147183269950807,0.01185336518877914
SYN0085,0.014345347090849983,0.003818715384002392,0.016068490770860002,0.0425035403512092,0.03374357054367865,-0.022645353894026832,0.0484479491141076,-0.021356773890089054,-0.0035669315365217083,-0.033295256637546726,0.017316471086779094,0.041629936795419285,-0.03750892692009433,0.010214559776867187,-0.08937508680079921,0.014918577986659002,-0.058252124224142034,0.057849489958663375,-0.03614844091307211,-0.07378450143399207
SYN0109,-0.02945995485042355,0.056408559845948954,-0.027531737810731545,0.01605092971574768,-0.021537391843689843,-0.0035366690306615424,-0.0064379054570778945,-0.011431067334662794,0.021152742642952933,0.0650867431093712,-0.018001553527397494,0.03585465601601122,0.052095335832479765,-0.04402843228674936,-0.053871523824151446,0.06760871617511473,0.0387146550461197,0.046726239655196865,-0.04433691320226227,-0.07784314783703838
SYN0185,0.014064168774891436,0.02871076245408026,-0.045864896593349386,-0.007688647938452976,0.005583159698207587,-0.06355211480845167,0.010939918913145682,0.008980890018228695,0.011140453512839887,0.03422685491141775,-0.005083149246471937,0.011362033390787188,-0.05874254672211376,-0.052660015233901514,-0.01701714665561487,0.07697400111172872,0.02732721669780653,0.09850387652089045,0.01689276299024736,-0.056151103912039285
SYN0078,-0.11479919759883722,0.024393539959184838,0.021909209706965683,0.0028778418540729256,-0.02443582087810854,-0.0622072176822569,0.05547002107421248,0.009795617533120892,-0.0405243629322707,-0.039772069704421605,-0.03638102469327815,-0.018031848623605743,-0.001887551621728345,-0.012536430272247575,0.0699258274767127,-0.03294405483144278,-0.041051481296529094,0.02558335997108016,-0.05623028774773888,-0.009025667222176813
SYN0080,-0.04358392859937392,-0.0483195610539596,0.02698828640529501,0.045132893156477276,-0.02635419168041991,-0.029077359863825432,0.0761629692466306,0.017882301384158094,-0.0005094481923409242,0.13668259757757834,0.07508025310938027,0.004181796058950855,-0.012401812044460168,-0.045907235750567335,-0.0128503152391583,-0.004742069318341591,-0.045099481653940156,0.06617774969767527,0.008356748448240466,0.052059790513300404
SYN0194,-0.041408690150837514,-0.05019347111957265,-0.007843996650872424,0.030157557941381318,0.010170942843883053,-0.029574769888244333,0.04376687849258926,-0.008128498564610282,0.024396740004188667,-0.021702336886155294,0.06639022090225606,0.0020448483228256717,0.0287595553260127,-0.04425954869806604,0.018278054942664077,0.023308892737236596,0.055547310474578844,0.0023532267550957662,0.004130617376987105,0.06944212625864984
SYN0214,0.03150961344134631,0.0017338617344618951,0.03773992127687537,-0.05733907163616571,0.09601733417358574,-0.022968319726527416,0.042094005286021176,-0.010971230934203182,-0.054752928797001915,0.026643640023673264,-0.026976063843768733,-0.02874427395665786,-0.0347751512775482,0.054778370598472015,0.018076397592586044,-0.10333129887088553,0.026903044026349604,-0.010637703751679642,-0.011787229847475192,-0.0187687783071818
SYN0472,-0.005250934604666177,0.08231951832429657,0.035071124562380984,0.1075625645787176,-0.0013071422334923677,-0.037548250656886266,-0.03056879333472273,-0.005310186592168467,-0.04093404410057811,0.0012591537121669765,0.030366945530053938,0.09289627247974569,0.022841991989243967,-0.00526394561192996,-0.0141339470323415,-0.001504727274674449,-0.030316657730462007,0.08161367846374114,0.08761362818231898,-0.0061164615222552106
SYN0244,0.0035848546063791415,0.0051721470866083466,0.021601734554575373,0.01716835375013039,0.03267172833344669,0.0011622056278744717,0.013504454855478656,-0.024080724314637758,-0.021783732648959293,0.0025177104463081274,-0.033253366677917014,0.03342492505353014,-0.0696983752620567,-0.00875956752789013,-0.0071672896175095585,0.0557173854298999,-0.029717948883058974,0.0023540361921695,0.02415917856777615,0.08401019289610512
SYN0027,0.02455523056113015,-0.07012177090170423,0.062189550503839314,0.026594024897604276,-0.04530360801196625,-0.02719110491356492,0.08547505545353563,0.014896939065524443,-0.03908294643655175,0.050760205316773804,0.04040260878127207,0.0400574087913901,0.012598719023887905,-0.01396513004340805,-0.0246535415927101,-0.017301705040333334,-0.06511968212933998,0.010871652591182465,0.027817641164196553,-0.0028112051960464844
SYN0362,0.029181127917707494,-0.006936100237539674,-0.020600362772489805,-0.013840339563239096,0.024612651239778273,-0.015928268403195018,-0.0158807521737834,-0.07687704242712169,0.07592361800874939,0.03707014558448994,0.03725988839545962,-0.00538370648209721,-0.045119278112777106,0.0308720087315105,0.02023746316790746,0.05080252730638672,0.011339185098838073,0.026194962730678367,-0.01229176950941904,-0.029587680321652262
SYN0003,-0.03569564071757998,0.0024135776800745896,-0.05009024029714354,-0.046673808516279836,-0.10122116953407181,0.09355707232404711,0.015105506930814788,-0.06933553599510686,0.06130611063261303,-0.02032534196544452,-0.03544314125621937,0.05300878001915294,0.11591955715480154,0.031171356041007292,-0.07510425155743124,0.0058621546049072645,-0.0638603400426552,-0.00024370315106681957,0.023813728559380683,-0.0662406865305735
SYN0344,-0.044402413224853006,0.05104936786232429,-0.06505782286700174,-0.009750959571773778,-0.03550446556086086,0.0640196440576541,0.05608095038925949,0.0002917518088877397,-0.010885843066267168,0.024443097974706268,-0.0041203172377644506,0.06875978980982601,-0.08701417232964882,-0.04582028275665714,-0.012708872635558975,0.02358691199253399,-0.07291985074915885,-0.058350857008510566,-0.04494920551720743,0.06437405788296273
SYN0489,0.09079533690238181,0.008899685442033059,0.02092544861704516,0.058874368425005486,-0.006544404265248276,-0.030259596204355536,-0.006394737291110806,0.05463824828052671,-0.05152345517300918,0.04358834232859214,-0.015959380167367504,0.013900575699530134,0.03721346214797461,-0.012932812238612278,0.020281094318917534,-0.015621071654396326,-0.059585793825300264,0.03512051978958025,-0.019622287303159913,-0.011724062008623201
SYN0305,-0.048062566305444525,-0.04732487847455652,-0.036291210649761076,0.0060868689334617025,0.04182934640611213,0.0007184106756548545,-0.009514725451637054,-0.0015849667509711138,-0.013316966062566066,-0.0012483951812329319,-0.05433359461519946,-0.06042862015785173,-0.027031275376034513,0.025847700248589907,-0.07723238112149053,-0.04041959314251777,-0.04502714502210165,0.004822771394272461,0.015274219976761443,-0.04291020904732362
SYN0153,0.03968033161664637,-0.05347396328234793,0.0676972194616407,-0.05435692791092351,0.00497587539065037,-0.009318445018848326,0.011866878998120008,0.12647701449033033,-0.004809966268852963,0.013535277422827617,0.02175333904236441,0.04050450892406473,0.019732577990123158,-0.052205613483032536,0.04134110468327268,-0.04798272455416049,-0.02845332540628104,0.028368062379841536,-0.0019372041627212467,0.02687112936913051
SYN0059,0.028194779810513788,0.0894536921434806,-0.029234077819485078,-0.09248583480749417,-0.01664060888013955,0.0686825807370935,0.002052571757125511,0.026281902754071374,-0.04382266617320731,0.06853738934493937,-0.030950317726485453,-0.0309774210965137,0.07726952088943659,0.028488293468757444,0.02215428126480373,0.06431365166592097,-0.014340922645433213,0.009682790632200759,0.00312078950109055,-0.045503291634621044
SYN0073,-0.03217111303649509,-0.0037966183991163327,-0.011154896254696267,0.014737436334917383,-0.07631842703015752,-0.019855397458029524,0.006407394868358965,-0.030649292546439503,0.01584795384401018,-0.0614960017130385,-0.046569634489340435,0.03264060192981975,0.048673921930126866,-0.0362922319483109,-0.0058765094054486,0.052298975798576425,0.007566408450866133,-0.08122953220373434,0.055822511401419,-0.11160872355969848
SYN0193,-0.036376101932661095,0.012643472132578352,-0.011624917985912362,0.004821493526662648,-0.053876336561500725,0.032426525809539676,-0.0424764614041258,-0.03365257869117486,-0.014042122635762553,0.015428180613491159,-0.05487844025100531,0.06013205532201317,-0.034952814857592385,0.016892159662553363,0.005265164411720806,-0.04254732207755937,0.007838562631198566,-0.04145691309005005,0.02912781747354183,-0.03730633405323191
SYN0372,0.03436835970091427,0.016895174448317937,-0.10018026644205574,-0.047946924113160275,0.03446149011270517,0.00015621231042691296,-0.058626655707315734,-0.04710530600494924,0.07368023322153493,-0.06076005080579151,0.07740793380389252,-0.058777633147009595,-0.0032416045478515184,-0.11281387937921693,-0.08040965189273647,-0.06610615153084175,0.03965694564645915,-0.018251925790102725,0.01500116760690076,0.039364024343106964
SYN0319,-0.031666491004802316,-0.07297966953608238,0.0280750602034868,-0.001127582085304197,0.01574002414861596,0.008697528444583786,-0.020973102611197027,0.06615257469125893,-0.016207613887420518,-0.0067248567901298465,-0.014759539223318038,0.0608223122235796,0.05824833148766072,-0.022069742236023884,-0.013839605093969077,-0.03759544920077344,0.04454917339560386,0.025303086489938967,0.009257572517717864,-0.07329835713052792
SYN0425,-0.02721996153936114,-0.0005423734593042916,-0.0684741211647961,0.04815348654166477,0.030791662206243495,0.028474761356627323,0.0339652538558466,0.015934654009240854,0.06264182523374459,0.021742149536299195,-0.007611374794302047,-0.007970502164056849,0.04023072568753645,-0.012356412503756893,-0.035466070365896885,-0.03796395857816043,0.024762981155908605,0.09717197718207819,0.004382348313251034,-0.026458646367252377
SYN0480,0.04820019318502666,0.03594959173101568,-0.010676742213607876,-0.02655911036885949,0.013855231608045021,0.04366360524181311,-0.06608341255173407,-0.016565079150452175,0.010318388281496985,-0.03447763566318496,-0.05898055501089637,-0.03634938918688293,0.10661582481832597,-0.060089081922540574,0.07673760529616833,0.009518367054042829,-0.027009278383091976,0.03317046432075563,-0.02424818037468786,0.052074316960522046
SYN0400,0.014036041983540273,0.0046386580208635265,0.021034209188467993,-0.040296959743735226,-0.01641528831259611,0.018062439479316517,-0.03275002001381371,0.04374683321642349,-0.06035530864570474,0.03856774509783096,-0.005524578229612579,0.040911409133221326,0.0430599028615381,0.028959111927354113,0.0029970168196163734,0.01887879539082325,0.0468476513254349,0.011409445095498674,-0.036957189080573945,0.09574049179117271
SYN0121,0.059184834287389694,-0.013552971292027333,0.16753862498338146,0.04836728345447141,0.04116873247918362,-0.01300234925216853,0.07295824678244274,-0.013933110499463917,0.011163619223379807,0.0006969088712684225,0.07140891699239005,-0.08327192143706436,-0.023824782351368628,0.015062214099842494,0.0963565710880808,-0.01718270836173427,-0.017656905972106892,-0.017633447331742907,0.09346880523682899,0.0005775610307237624
SYN0354,-0.0039541125420371895,-0.04330792953219563,-0.009221643611940823,-0.010018292396896753,-0.0050118216823044695,0.037768090901796336,-0.022012256819407626,-0.034578033718605745,-0.003023252703138658,0.05349099836891628,0.06384107580274805,0.04542887792485608,-0.021005928099469027,0.05480925152977002,-0.0529496865219876,-0.018027930862057128,0.00013727948373858006,-0.013274409774033734,-0.018040114811079443,0.03815594766522126
SYN0286,-0.06584284275195376,-0.00759026626346756,-0.011911831675451358,0.0026396952276397947,-0.002009395229981045,-0.002399077172388422,0.012144041437365496,0.012794622243690655,0.0068644477343605325,0.05329014459244902,0.035051323472914855,0.01886410724797878,-0.03758957044014444,0.04665617670797688,-0.03476631077307149,0.008439344105043508,0.049382653773952095,0.0147924537651258,-0.008647633669125007,0.004650348781741388
SYN0363,0.06409256985026116,-0.0005421221389079715,-0.021065234068717763,-0.035662814775035544,0.07749150179652227,0.022080433209378626,-0.08673517465527963,-0.008392046444490651,0.012341722820916506,0.03513835900744363,0.0198037571886278,-0.05574936850810385,0.05494196715850274,-0.01749940905088328,0.03647794749656693,0.015134225328124995,-0.03331653169415838,0.02123730376783992,0.07187368959193553,-0.05004350626552869
SYN0179,0.02432899276585424,-0.07612372201614508,-0.011411462714760488,0.04817362460534052,-0.03355358313817072,0.04254291274918687,-0.029355477267069725,0.01814871867856393,-0.03389583144074361,0.0020002937593542294,-0.04453121774205833,0.001668446460449336,-0.047768985120866685,0.031639040747629604,-0.01892639953373931,0.058816058873259566,-0.0006171194201098067,0.009049990708835564,0.02765960660099155,-0.009676764749287085
SYN0248,-0.07366703481017496,0.02891820772686909,0.0032559756765820833,0.06462455910543545,-0.05850897447116462,-0.03903914862699444,-0.029931220206656874,-0.06207728854049147,-0.061269334728874206,0.026610765962748553,-0.007206426934205272,-0.0038342275960947824,0.0029411740138564945,-0.04766205179947609,-0.06371030936316435,0.08044853295428195,0.007052207864837935,-0.03251976577501306,0.05138377314451387,0.018572327980011447
SYN0491,0.06702504845508758,0.0243323876061279,0.03182524748561401,-0.030375757994122517,-0.04461983248306144,0.0056298422597821605,-0.07610606053720384,-0.05851936530977414,-0.10390261424207398,-0.032831263897362725,-0.0132415775594049,-0.07508687184312515,0.012469540206650653,-0.06262631778908631,0.006430297975633482,-0.00912829364088272,-0.06864991122618701,0.08342188559129746,-0.07891338228166363,0.02496353037921155
SYN0051,-0.07575116043252003,0.005333772678778136,-0.012828795317216028,0.0660924935272542,-0.062430311665579205,-0.022695510984007378,-0.03010920457657132,0.035013753633480506,-0.010349504038717537,0.07300373557633623,0.025509189088470226,0.009372094922291853,-0.03618336178846143,0.020873507980349124,-0.029305781944542645,0.05922291128820805,0.036671680710031955,0.009387616611849852,0.06776679891603143,0.011195987427400278
SYN0449,0.08069312130033454,-0.0002695769341041216,0.03363286812119662,0.01164131087431463,-0.06497283470638524,-0.040650632249168026,0.004790586802501852,-0.07555532177321253,-0.02736489914401129,0.051892277096536814,0.028891882229780497,0.05784288840190445,-0.0032380661516537637,0.07865764289927031,0.02253651534494589,-0.004729292845380044,-0.0338488470853983,0.030759968935397963,-0.007900450917394575,0.0036405771854057284
SYN0270,-0.03703515739024547,-0.0024847188832330994,-0.011354076432262564,-0.02689091482247164,-0.0017634978872644814,-0.035593561110886136,-0.007206133371143232,-0.04881696051095708,0.06675501554130102,0.05572904610818098,-0.01465829159360869,-0.030923976311605046,-0.019134286217522604,-0.02220189714104437,-0.043103481600604274,0.05013697740627234,0.08873642792569492,0.013062492780228465,0.013279106404225754,0.014859259858466289
SYN0370,0.07769304320651149,-0.011304152695444767,-0.047131143813876536,-0.04893677450203591,0.0673100852731166,-0.010486330238862198,-0.07440710117788397,-0.010808915289268162,-0.06270202490626818,-0.01784347715455984,0.08580123749082004,0.04359050217755643,0.03417565140790699,0.041069898537577816,0.05419673092755539,0.020583456660310383,0.06498131269744384,-0.012960285137226005,0.07761162484945108,0.030202943365818954
SYN0412,0.02441143730136975,-0.05728160066506247,-0.06332894171585898,-0.052247496470019764,0.08393860464204438,0.023649871669375135,-0.06858815951695835,-0.036981100876116654,-0.005548293742950491,-0.016187689446590336,-0.014871926958537422,0.023776421155305816,-0.023726288555014362,-0.02601408727877423,-0.10591181128413954,0.013653715303895876,0.0168548615450788,0.004816794628366214,0.006738389299365444,0.0015333378885121552
SYN0485,0.0066680949611826355,0.09417394271555944,-0.0379955531666931,0.0502318374953021,0.006149802777215334,-0.05854559494493966,0.02526292410210399,-0.06222014605319301,-0.002264302593050055,-0.007676443918926138,-0.014893857861045525,-0.03711492168916708,-0.013933048638193094,-0.07761367259060044,-0.0560974239901954,0.008731756787287263,-0.0444691991204818,0.057050450854638515,0.007277918222973863,-0.07110649622712888
SYN0282,0.023136541482652297,0.05154281497030813,-0.0733513488660616,-0.00966880561974355,-0.005555782005263748,-0.011350298313653874,0.02632095198504821,0.04516039738371039,-0.0037272430514712525,-0.0010590226720154216,0.027970172222581163,-0.025366131288423785,-0.017600547127805885,0.05235981879848018,-0.046991663072589625,0.01914484346913547,-0.005345764843466152,-0.008887497626574073,0.03283170723652001,-0.013269221076490005
SYN0294,-0.062042491378634476,-0.01430591676768696,-0.023387306781226077,-0.03880074891184697,-0.0001616431596208985,-0.011649347104749503,-0.04426679763362048,-0.046692447851012266,0.017432276961232528,-0.0380723987253277,0.03129043211134293,-0.016147395735255175,-0.019669086839071034,0.03221721517865726,-0.11888128961479333,0.002600597322979028,0.00929779948616999,0.078873760313663,-0.08066549766396425,-0.009255514294496628
SYN0265,-0.01990097499148933,0.04350658321541367,-0.07614856944976804,0.034013880455215834,-0.0359695653033436,0.0044068587390127005,0.0316552286264498,0.037562574018526695,0.030557151752198582,-0.006041722027520704,-0.035996387726936106,0.018418626805135653,-0.06353752412105956,0.020629432286519235,0.02251885964045976,0.00422853340061955,0.060909809981372284,-0.03508711924383066,-0.04695421857381937,0.02078194463692722
SYN0295,-0.030351778186580816,-0.035997847727476794,-0.07759049284365875,0.03618076813670121,0.0040299635965438604,-0.004916994780440411,0.047218679025688284,-0.031321744233234465,0.07673827273753439,-0.020223298876093053,0.013605295951071326,-0.019295578357743648,0.05039200612076267,0.0026712699330383267,0.07013938664321319,0.010929359257432335,0.06784623043738042,-0.02002996967949613,-0.03552792473402459,-0.033827416225762026
SYN0378,-0.04311098833394185,-0.031773831929136756,-0.035139359416733906,-0.05518880568604702,0.013335712102043618,0.06266446438020885,0.062044542419020354,0.030285763640285592,0.020003039031918784,-0.07714811514838747,-0.05471349455732924,-0.0314755039533635,-0.08107830014412978,-0.017985102641256398,-0.027825500519712783,0.02968905246911238,0.019668960906969665,-0.0037587952601982446,-0.04712852515939234,-0.014277850197007605
SYN0342,-0.020232671336620153,-0.04889416457250942,-0.016922229161069925,-0.0686524015074866,-0.053032407963601084,0.10177151384821581,0.030047163185255264,0.018688730823788604,-0.010674854324138207,-0.0474690845602439,0.031348013623737604,-0.03421888512356853,0.029068019692203257,-0.012654384232153619,-0.011038841899343928,0.020029237577245302,-0.013820840047833474,-0.05481139051971014,0.014484742515150304,0.06250984957343673
SYN0351,1.3758427879608629e-05,-0.07596574973674133,-0.03623145465944973,-0.020263731042590664,-0.023596474675545924,0.021712858416808176,-0.014729429330022374,-0.0038603736293385885,0.020568767404497368,-0.010779822271058902,0.0012139886702057687,0.05269862678610533,-0.0012953347225622873,0.021284186720973635,0.05319853175548019,0.0029812770499337412,-0.03149414541875705,0.012574225988747991,0.02636659259532106,-0.02865953162504669
SYN0285,-0.03443273889886386,-0.08497916610264919,0.00922123734501412,0.021487399657684085,0.014143804407720138,0.020886398622902435,-0.020102844281821186,-0.053153122350599706,-0.06927892241193508,0.0065581541511050495,0.016574869485785845,-0.035984398942757706,0.09093323821944348,0.010553885920595243,-0.05172994710611755,0.03961280352879248,-0.09710101567633049,0.045113770785032994,0.08960187192803987,0.05971552138342164
SYN0300,0.023137055280258948,0.04033814974251918,0.006119959482105809,-0.02129009618871806,0.021851417271993728,-0.03497430543472648,0.031002178456875494,-0.0167645214076457,0.005900945737745113,0.0037764958125121196,0.00798599747870278,0.055612520621933864,-0.002053992867322217,0.03439463234224531,-0.01472706662161157,-0.01838400876204686,-0.06675668219526774,0.0009888929824820542,-0.020382098286667896,-0.02344591924059424
SYN0102,-0.1216866531062672,-0.013185402370088079,0.0830358909560202,0.049047748520376105,0.029531359840864732,0.07908515441638315,-0.07937409135014238,-0.01644417895821392,-0.014839897200864337,0.009414718941826834,0.07455935429488925,0.0027637060575086874,-0.01358135780766787,-0.008919646439944334,0.015302282422667452,-0.05185656919559456,0.015813289954694963,-0.04588390786182207,-0.051457220794541327,0.003104302566930965
SYN0247,0.021981352907737207,0.0002980889478002459,0.010499883399435708,-0.011953100862115247,0.014788881029072304,-0.022963013878532425,0.01361422500146632,0.0077050102130690416,0.03354927693401547,-0.023052917267783003,-0.020248997757443793,0.002198835330068506,-0.02039211017058936,-0.06336297088877763,0.08962428431642905,-0.04014990745227086,-0.020217319106722222,-0.06705055134804201,-0.02567972668013228,0.005136126703977244
SYN0184,0.011230190873951332,-0.012096868521793518,-0.002406741529394528,0.033725158194748014,-0.004575171767687163,0.0941949090905293,0.042521733034073965,-0.0282180820291063,-0.027138240384588723,-0.003094582476962784,0.008148286975106311,-0.0010910767278254027,-0.07634712731953187,0.040225647650563086,-0.059347013922296556,-0.043891917356325694,0.03237512099220747,-0.04498429784748485,-0.04841675191435111,-0.054524759077078
SYN0479,0.046626799123719344,0.047393440371681035,-0.09781292437188904,0.02221649511826727,-0.07469156637942598,-0.052005983528190025,-0.07328610827015224,0.018532331812833317,0.04143706447726576,-0.03357583375438872,0.025717326688009492,-0.05773324547807667,0.03274943513987986,0.05106931005897259,-0.07760398508654832,0.02842464721827201,0.003387482828517819,0.002936713384809605,-0.01234755233579202,-0.06748745881461236
SYN0212,-0.03627112129270057,-0.058644211531762275,0.023504469711446603,-0.1130177892836146,0.07189970875403018,-0.030967480045724232,0.04001429449963085,0.02896605587651331,-0.042296170423849484,0.017591419341373718,0.03406690413466788,-0.002131185507534143,0.049156162857138856,0.03232416675331493,0.0034594655443076472,-0.0706466805366876,-0.013355581515886918,0.03606810261905238,0.007902429141893845,0.01650028007541894
SYN0494,-0.017516554230686838,-0.0183204465461644,-0.0491114583112372,-0.006688344682476898,0.023073902018918107,0.036706561564401774,-0.10773808064743434,-0.01210718848752391,-0.0002144648516259741,0.015587583778528757,0.04601323992487406,0.09125992293919408,0.05708499143866216,0.09279337740184243,-0.020214952806314364,0.031209819530830758,-0.06449279037229762,-0.025696877390406502,0.02560604389687253,-0.026870727244496555
SYN0065,0.0415069223596002,-0.03279658315964025,-0.015658489195898306,-0.0516248211216861,-0.005321834748618889,0.03823770909651168,-0.0986035049534179,0.06719024304115662,0.009803611092057525,0.020811619009182537,-0.044852619511667094,-0.003750262874146943,-0.07116917107680283,-0.0034208454335719696,0.04591262392637266,0.09297318498167369,-0.06817069286771953,0.05582578450009057,0.03628616961072142,0.0072284853968588685
SYN0439,0.06604392630497757,-0.011438196738112019,0.03577881022638846,-0.007086114579040832,0.009816843129117282,-0.00499006915226004,0.04586840958420357,-0.014557749784376803,-0.024549690071365895,0.1021568491273273,-0.047355266228965555,-0.004563672434557387,-0.06859799157868558,-0.025333921117157907,-0.06218828408420032,0.04084762118410025,0.022522018095247526,-0.005126747287873315,-0.059690159460905966,-0.012418575447061481
SYN0155,0.0338556768382984,-0.003082341377576429,0.04063828518918709,0.047125896196811894,-0.04481589413188058,-0.029436308298427617,-0.045285745030514274,0.07207165032647812,0.02139830018700301,0.018611554383806975,0.032040356599092615,0.01060440874997026,0.005183535566090804,-0.05816665318569649,0.028538126519948075,-0.09587619525996392,0.009421521833501015,-0.010131857825224024,-0.08449860159851363,-0.02879683659174173
SYN0345,-0.083101170399733,0.0649963256982746,-0.024603615930174197,-0.014131012459091787,-0.023308977777499604,-0.02147667979790625,-0.011489656415425433,0.03163173722485444,0.002205817447955803,-0.0488306735322015,0.040244255598276414,-0.015517660793678641,0.003500333351664382,0.04424129063246915,-0.0418258456234775,-0.04517273143414308,-0.05695340847664157,0.02000020544814522,-0.027056058494252442,0.0015788043740413917
SYN0231,0.05192163500919579,0.09055855627093869,-0.053267852701020434,0.04954583432874033,0.010019338933112907,-0.050939628154042516,0.03499928323261192,0.01280967787723868,-0.10391141831370679,-0.034906273423415,-0.013267549498218331,-0.005343912635725269,0.015795228687350282,-0.017413903744491376,0.08660240291806594,-0.04608115209929637,-0.013758823059456757,0.012241798905150168,0.032723371515623365,0.0332923184020857
SYN0157,0.006473697510507896,0.038865606811498477,0.039997614506995245,-0.03865906676843485,0.012017588114920147,0.014136101427269582,0.004421289311525652,-0.02470073372089045,0.05937641242906184,-0.047065702400943786,0.04804211428082273,0.011572675119266603,0.024122874799612795,-0.006962720389857563,-0.011880907066845416,0.031505783618833036,-0.07299086477023219,0.07510135591285298,0.07442989163271,-0.07642576634459133
SYN0199,0.03467749498767795,0.03535055953070533,-0.08032674105525181,0.022985172301722315,-0.03156577972043799,-0.0828714897798093,0.030506777356692785,0.06746776890078336,0.015170982900113546,0.02491646726953459,0.012211470827910803,-0.00368720569709014,0.03998299726827197,0.034341799673351575,0.019787309922329403,0.0071708769623177095,0.0387299350840805,-0.040928707225565686,-0.03359302521594788,0.04168899363652375
SYN0371,0.09512180003162453,-0.02341309188690896,0.07378750219183763,-0.1020185724296251,0.022616171143735552,0.06310239512836349,-0.010227200788522314,-0.011621367609656824,-0.02240674521154331,0.054003465868425686,0.06039887749967659,-0.034076193872649124,-0.03847195651630493,-0.0399572739181086,0.017154892700154616,0.02046215960096817,-0.04163973040594529,0.028687258033970656,-0.07426365540945518,0.09827723714862475
SYN0384,0.07661631040464317,-0.05663516089291056,-0.04187494324879838,-0.11829292702639589,0.02265364046017233,0.03728440599051542,0.023982541989883296,-0.038073392753751746,0.02495682121515726,-0.0006629293327488261,0.0068379114388922085,-0.0029738213977439604,-0.04503157900864508,-0.00645748931993126,-0.06831085767759307,0.06921524597085141,-0.028348458956105625,-0.009363976539015969,0.010020125899048674,-0.05397200661731861
SYN0009,0.01741914705393218,-0.020643742637545558,-0.011094578431136112,0.029698207231248833,-0.024460440899790232,0.05120835787284359,0.035886138424661394,0.04589203956301357,0.019552050564027465,0.06433879754830073,-0.04362249254757268,-0.03747068978093769,-0.08658367809079306,0.05291665486204813,0.0002596509063636743,-0.030010442362176773,-0.053879157406980786,-0.03340551423676564,0.10844846834713909,0.04078941449111566
SYN0476,0.053063864951824684,-0.03057865247912967,0.004076996864448525,-0.0021957239125473616,-0.07417088111589482,0.04975481949695671,0.0022650975707782972,0.03406150425620723,0.004320176439386279,-0.02322842262530248,-0.04109342173931241,0.01986229023737765,-0.018774550698128358,-0.03263973886131946,0.04428021943535103,-0.03794734813390377,0.024284863662598553,0.07860529260784808,-0.049273043980888664,0.02088492194035592
SYN0134,0.05392089156835109,-0.04406301728066221,0.014344811263093959,0.023779362954164412,0.054997314663926516,-0.015398504764516843,-0.022149108104179954,0.07022666075735794,0.002880852166025428,0.038874066022689086,-0.04190203791365443,-0.032462861551343015,0.0562655732049401,0.03282095021999908,0.0023863649421821806,-0.040277214005658174,0.0029671495946891582,0.033452477972065485,0.00915007497782255,0.062037784983586135
SYN0243,0.026525290253545844,0.044328782440048946,-0.03863101007273853,0.008990480593546372,-0.0030006599304634616,0.05610996603871179,0.05185623426104551,0.012203632083979538,-0.011928489060200453,-0.04055093913450018,0.01218367083477237,-0.025331456714803444,-0.0019876432216543445,0.024965217055264995,0.005839248595972573,0.02767739547101908,-0.010040849852408749,0.009957347116382933,-0.08262470756319466,0.0737026641052642
SYN0283,-0.052408407706196744,0.03119926848659969,-0.03838902929356039,-0.05225438864294131,-0.06372756889974066,-0.013191205764577968,0.021317789913432656,0.05254118142406037,-0.05475400664160396,-0.03511489748088022,-0.0008264061423559174,0.06254282264141027,0.06286774621376617,-0.0313364357544425,0.02596263298627193,0.015104027581185283,-0.006633403056668639,-0.0018905610641084813,-0.027588168618153792,0.06032457029819364
SYN0255,0.05349903538424407,0.06381946089581887,-0.08267255323580512,0.010799979084377048,-0.05016906341740201,0.030383371886916512,0.00893006273434079,0.04322614723573721,0.034737795298299165,-0.072260713121905,-0.06528860037899172,-0.05268163215030208,-0.02206806564282718,0.01587409081111414,-0.0341794877933245,-0.03892262649545706,-0.0319704486621814,0.054657165307049733,-0.021834936632031232,-0.010650472346934966
SYN0260,-0.024668526949684636,0.05312724112962453,0.003635914048026045,0.016447565541449004,-0.0051579255846490564,0.04762420747006364,-0.040662286217931845,-0.04924333641395672,-0.0020876864627371707,-0.0018815489466799547,-0.027069255392269995,-0.020091882385928156,-0.012345337238434291,-0.0003513214355633517,-0.0035871740318879053,-0.00879482285731539,0.07785562831982998,0.009438964702341974,-0.0353653980302907,-0.010083080996754796
SYN0083,0.006485347417378149,0.012873386868113056,0.07159597082392127,0.04676165805842856,-0.002132942964768523,-0.07246876531508065,-0.039145033649612096,0.007146385116552702,-0.020024114570843944,-0.03541527277020309,-0.05658217007349761,0.04311836718798199,0.05594782524897556,-0.020758554032311628,0.06337836636512571,-0.011292848063391016,0.09418058928188769,-0.009764927925478749,-0.02147677619660458,-0.02953138460326079
SYN0087,0.04316435066378977,-0.04954800971395035,0.021574658765997134,0.06564233343950177,-0.02443906429514349,0.0021159682321417878,-0.03379600103931099,0.006822062446200561,-0.051337633624226185,-0.045221423235938064,0.009211970343968943,-0.07779674447472319,0.07710519856381283,0.038255363686129994,0.027594892094724797,0.030595786390909693,0.011940362884496692,0.04612601264289329,0.029617803859884283,-0.04394043804176578
SYN0180,-0.09449985044384179,-0.031247453627356644,-0.016679745483570013,0.005322956597655231,0.014104804070885005,-0.025584904636085214,0.01623301156397903,0.03433659171005041,0.013222353272748724,-0.003437863352174864,-0.04364667750907533,-0.011423720976432766,0.008165104231432735,-0.028798113266272962,-0.04078913195749139,-0.029530833925018388,-0.004334709645292594,0.07989785387081838,-0.0480974171323446,-0.12207961461414688
SYN0316,-0.0012332821494399318,-0.015844371318310735,0.02266501535961371,-0.005760114399476884,-0.031128990588940062,-0.0016835799368248312,-0.032596658832340475,-0.02396913028239108,0.022042272884158477,-0.00937959565674721,0.04637020865799933,0.06438368616942748,-0.023512412603013438,0.005735711493624076,-0.035368517805560405,-0.02127774971340752,0.053261684020539254,-0.022893537363504485,-0.05891608366345313,-0.06399971118181363
SYN0389,-0.021707129260301508,-0.07669836913666413,-0.02220976918483295,0.02007270881996419,-0.00862847270198728,-0.012826246161679938,-0.04881110514773458,-0.01765620997761795,0.0027288977602396972,-0.022311333216701368,0.026382703771730725,0.01643345617104918,0.025967628177026702,0.011585794438105793,0.04573811311414883,-0.0031628164940234065,-0.05407524478928631,-0.017262506106424134,-0.0861600400349577,-0.07374379808491051
SYN0366,-0.01643384139892312,-0.051889338716251884,0.022476557814175617,-0.03774503537119541,0.004064573106163725,-0.020540152660780908,0.017723695255626684,0.007126417630568739,0.07363865967067171,-0.08452669470778341,0.010213725644697212,-0.012203607945432222,-0.06435182213773905,0.03416776407778014,-0.03618331751024094,0.0409180923549624,0.0376203415901731,-0.05205276720486141,-0.030393603446208766,-0.011852291444508611
SYN0262,0.029792357979391688,-0.015980527056733095,-0.011993635294863627,0.0774370678312628,-0.026116565174942704,-0.032846498210822465,0.03151559570830169,-0.019660430925084554,-0.07610839206570919,0.0856964101635695,0.004350145979227649,-0.011665062266143323,-0.02358461533693049,-0.026496296802406952,-0.10319312755757623,-0.014897159696322354,-0.01900609916399609,-0.056327215912379484,-0.015432101069964902,0.010863609140136012
SYN0408,-0.03386247169098808,-0.027196484680705072,0.04556734482942812,-0.04016508522600333,0.04990537500740087,-0.03368597957330967,-0.013737093350270475,-0.006012159247317613,0.011575666359916983,0.004505816386665532,0.06910514321608106,-0.010112502442087135,-0.0165085446320675,0.05595802537780772,0.049011729328423376,-0.013798675983319015,-0.03289754370655178,-0.0218188538546113,-0.019175565619408006,-0.10028773430560099
SYN0105,-0.019969171021580794,0.04355333220075744,0.036951529714107194,-0.01751552117080717,0.021107791536746558,0.044423268430875344,-0.08291179375533096,0.017285816068171544,0.04220180169307782,-7.434565773267666e-06,0.03828974269208405,0.030525839070029776,-0.021954101193741086,-0.1027532516410004,0.01358642856984014,-0.08667879118262839,0.09886625716939511,0.0011368035074962354,-0.022078551254614137,0.02809335748874013
SYN0359,-0.0008859137004789888,-0.011981911325560927,0.06669913243200627,0.0019089262726246393,0.010027971442135526,0.04224372443207261,0.026361453382043265,0.0787490026968688,-0.03544086815570445,0.011955779852180302,0.08540288569817409,0.025986194730442235,0.020809374847335627,0.06521792389240141,0.02753704162074995,-0.06868015768689788,-0.03862340005572244,0.03452733800615096,-0.002666465605374782,0.0042511007093746535
SYN0148,-0.05696350696040697,-0.0019173628552293786,0.05114738300516291,0.005661991316443727,0.04418377734104796,0.03678225840217328,-0.03383079300279473,-0.02514226263225729,0.07687247559640334,0.033129295442338814,0.042601382726089265,0.05546178442470888,-0.0463919456180579,0.013255709476427692,0.01201602657793109,0.03865640269300815,-0.040492455186762054,-0.06029524044520356,0.07093983297477685,0.009114304716782573
SYN0357,0.08519364915580009,-0.03333303244399444,-0.008375073312378082,-0.017727040747861102,0.046291136088923386,0.05234152264781911,-0.02299071943144719,0.12547733898178365,-0.05513951141295985,-0.0018462795436315542,0.06841654224145718,0.07018113961741985,0.03295669557591346,-0.0321406534272846,-0.005072052141524767,0.0065861498285612495,-0.07624807125276586,0.09472346655590809,0.058565440489306855,0.04864347135757137
SYN0448,0.037545361585935855,-0.034847396157023355,0.04790558501016935,0.04197024515070629,-0.02986523075118083,0.029889743310198058,0.03444544308394928,-0.04136231204949308,0.09845998055681886,-0.00819343045928761,0.024056937208562043,0.01626544513771355,0.014287986009816681,-0.03507859385394852,0.054882539340550866,0.00010359518731288234,0.0605651363394019,0.014415219212031196,-0.005459420819737566,-0.007325421559327496
SYN0437,0.055668229259725005,-0.011701829677673987,-0.025257501542345,0.043752332187882256,0.013798951562034168,-0.0034475413699425485,0.028883184789469142,-0.07392889827535142,-0.06903176943826268,-0.03588293820756812,0.014591667537400238,-0.03582793119756359,-0.0194186468311827,0.030438945604526826,0.04461624607278461,0.031736366201822595,0.09527301525868367,-0.014074126729685645,0.010446343635998055,0.05651339369412821
SYN0237,0.031156043872999365,0.013640981829038385,0.03701452241236866,0.026534289916912836,-0.04398610016087372,-0.055861059381422745,0.10176442102364498,0.09103446426852554,0.035785947619060114,0.02561090410032522,0.007125992635121577,0.03777440274999421,-0.05531446931449119,0.02716472758129053,0.10821503462728582,0.08695187401241915,-0.062492135227865564,0.0027455665228712247,0.008133438174301748,0.00783699350016885
SYN0284,0.02234959970073382,0.023921370782183905,-0.0008089960860549433,-0.08429035084394455,0.008110567572593756,-0.03656883751192859,0.010136134360328581,-0.0407357068206786,0.042771316278893634,-0.0689200768544876,-0.07780806423923707,-0.019278130996112114,-9.10948322065617e-05,0.02267951138102309,-0.04221189245987627,0.003666254086305531,0.04591316060661101,-0.03353537300012063,-0.030041174392471094,0.033713828938488406
SYN0313,-0.02621512159508347,0.004799759279459783,0.008312084615705638,0.04836033294862264,0.030772532600313766,-0.04449913301759432,-0.09718442040907772,0.022523753662831773,-0.03250019624713657,-0.11629631046650211,0.03740604277996536,0.03358554013123676,0.02839119180781726,0.040375416481925434,-0.010052755181163745,0.04767590176230544,0.007969509004575532,0.04040785289828063,-0.0065324347356357755,-0.006734066854694314
SYN0232,-0.008544147859143316,-0.08134661186836381,-0.011996470026387315,-0.04272354072113722,0.016167774787112524,-0.09072457229207849,0.07841234592780325,-0.006704182534627661,-0.023579990346731878,0.03326674037253796,-0.04160054989584376,-0.04831965388252319,-0.07427910868493381,-0.03789898520901395,0.04155343221635933,-0.027050887002335298,0.028899470208340695,0.019918004269388306,-0.09692530664252676,0.007215607924143811
SYN0428,0.028662602491062145,0.07090140084290647,-0.01068643770078158,0.035316403682931756,-0.0349340027397978,0.026402823817297087,-0.08326212358480344,-0.005897389095500793,-0.03505248496328097,-0.03690296513878616,-0.06433681799856078,-0.013234853023702463,-0.0013517303751988776,0.020765054891743292,0.027639047053534267,-0.025058095672634763,-0.006905898510720681,0.05892759373505356,0.03567199796851377,-0.042138935453291095
SYN0025,-0.04597170471461356,0.04621853736709774,-0.03019281131417878,0.029517171445725614,0.0029539950282221642,0.054592992665293924,0.08275630209706127,0.023348501597822514,0.002233808090891159,0.0682269003272482,-0.07308843903531662,0.015089294170349548,0.039477711139026865,0.037512230734776796,0.10359437744594319,-0.04821344158562233,-0.005166030708223185,0.0005585545523063946,0.10204503529424742,-0.02636141346194184
SYN0299,-0.14242649231094442,0.012598972767950217,0.053946335113597935,0.008988869323737134,-0.052456649096248316,-0.03926149823951078,0.07691543162273619,-0.030916945638752632,0.024083919262972375,0.07662473521907263,0.04880195262723754,0.03568473454751068,-0.013476907336194076,-0.06803638329020928,-0.018983721703956357,-0.03946074332676915,0.006466701314521212,0.03108599890566127,-0.0030621883295079222,-0.0053898813859095
SYN0390,0.045953602791730344,-0.008345519938821024,0.00387254905919362,-0.012067654297257428,0.035780461137173515,0.02217218128617758,0.03740889291358543,0.014653574001770444,-0.01837152389433733,-0.004632968928092586,0.012569283867167741,0.01579703375292745,0.0850242504906996,-0.06802234126717872,0.03460275933711848,0.15191446640787545,0.08231133456294508,-0.00023090825511772623,-0.058517806978527646,-0.04768122289910705
SYN0407,0.10257364857230102,-0.026903939156375418,0.003421555466609401,0.05658804782562135,0.06101521623783392,-0.006134867662338005,0.03404627514502471,0.0002355890102623109,-0.022160270564480992,0.021315337725021272,0.056536070590421,0.050701060152478654,0.0038093991014456195,-0.007548454417571268,-0.02522838020876964,0.03755500138463126,0.05344162928233774,-0.02192945350378165,-0.08782943603202295,-0.04143862697578647
SYN0453,0.0428841863622044,0.038371095708398875,-0.029126021112349527,-0.020021320905458106,0.03740670770718471,0.003803474247559748,0.05321302630768028,-0.049136315089569484,0.003650411511355913,0.04105070056978375,-0.025745024050176816,-0.003441369454740261,-0.04280749903668504,0.01785334384564315,0.0025615104840505734,-0.03600578697740213,-0.08068288688485077,0.027358211676117877,0.047625793300310464,0.03928140100734362
SYN0320,0.02838965147035334,0.009108727238035531,-0.004625853535267449,-0.008552405190056843,-0.019545059936615712,0.019376614084262004,0.004388404007144521,-0.02292302654106507,0.018401174487540427,0.049288256530074306,0.05106714366041864,-0.07240624137445084,-0.002605004303592402,-0.031998777995191685,-0.030070529814754478,0.0688054762468551,-0.012239884548139304,-0.028706577343486462,0.020916061730287167,0.030586975342441897
SYN0356,0.010400926971430932,0.03215658775431284,-0.11388431031326797,0.02644483082419882,0.006443916719767682,-0.05639322896052061,-0.05127339400393865,0.03274699688667039,-0.017221312125017835,-0.06267330844490815,0.0004248743985816244,0.004451419511659523,-0.026651420878068176,-0.012519917938119027,-0.05198832193947566,0.011258158093525778,-0.05267100925458788,0.07691340758392554,0.008293637882898578,0.00977742466549713
SYN0069,-0.1320695534528058,0.09614340337836252,-0.023806909609150582,0.011785316535106661,0.01306427896618631,0.01925942646624576,-0.03272368935020518,0.03264868884196887,-0.06928152742823916,0.0465510669816764,0.022352052041701233,0.00046133466824801756,0.029241148045402513,-0.0779761960844757,-0.00551455698667026,0.012271424955930114,0.01936343014615215,0.05788042573780174,0.030687004138874697,-0.0010358676712552463
SYN0289,0.0030610444282594134,-0.05172749363162402,-0.006459097325301101,-0.012917701124962362,-0.03276415313126557,0.12992215542441277,0.023014633071970974,-0.06567093080311982,-0.02800890648172357,0.028205546148092103,0.01956796434719513,-0.04097177927065068,0.004981351238145546,0.03976787826142669,0.061431078285668704,0.021826034663576282,0.09101691551877049,0.010933525156311755,-0.003791705509318775,-0.04108545979714823
SYN0057,-0.023538780510395343,-0.019184471215504192,-0.0037879717651197607,0.0013442591218981055,0.03605168085248898,0.021372918348850457,-0.03783813114488071,-0.1063237585883705,0.0354923624345378,0.04095401848281675,-0.02688733869824226,0.06431348482924425,-0.0724742698928505,-0.020401611873428642,-0.000810389869962424,0.03896434646269517,0.0037228799425390664,0.031583393909288715,-0.08044813189449679,-0.028064588841869725
SYN0414,-0.06412534509386503,0.015905523193486218,-0.030281658264873407,-0.0300018471658408,0.03197167425894593,0.008129457617692527,0.02695943492403191,-0.07653068249134327,0.01999662552693696,0.048834815970089825,-0.08072180301046639,-0.03191940452556382,0.006959600383621196,0.030157577307401134,0.0021173327299731323,-0.03250526784998487,0.021244424781104436,0.061223894922812196,0.04558256159640621,-0.08646605667085736
SYN0020,0.009270898763498021,-0.031977538965484435,0.0441624830935368,0.0454085668236219,-0.08657199673138632,-0.004460640477459936,0.03878664475742563,0.014891733913135561,-0.06175996370295187,0.02543928821752885,0.08780893099747143,0.06399663805838532,-0.00913707297744827,-0.04724574095602578,0.004822745921576032,-0.012529039161116457,-0.06057522702127511,0.06838286960891651,0.0031040200397425837,-0.0272770751963003
SYN0163,0.01848216481242492,-0.00749989812262032,0.053096251558697904,0.014519765938869441,0.019001147330217388,-0.058344728256512164,-0.010533045872335469,0.013752990786385135,0.014078268046772752,-0.024544633843398007,0.01893386882974469,-0.04582715855816849,-0.00805865872850376,0.05425642366161065,0.006017289156270228,0.05662769345212461,-0.01338001641485665,-0.024955500476141437,0.03676340852553648,-0.005496095823002253
SYN0204,-0.07632345072506778,-0.030691660051198662,0.0037874761440960226,0.06211588805842915,0.09694402076063963,-0.018763443182621017,0.03944228642406525,0.021906861801912682,-0.03993914196953743,-0.0036576778946918412,-0.04582199096303074,0.10324952415274462,0.04865657330156702,0.027310810539736767,-0.0090944029249506,0.010239641357179023,0.013475144232159559,-0.04831148148556313,0.051315325053387026,-0.027557678179028943
SYN0205,0.06621047663317932,0.09020728897818323,-0.01643219143727703,-0.1019458727397612,0.03547752310980481,0.08357124317860114,0.09134157912685134,-0.01617027697041916,0.05089191968287107,-0.09482256035088953,-0.025574679996136856,0.03154126093013121,0.02910356836012599,0.03659952823001093,0.05551282629562384,-0.06146124018247273,-0.09583614227230278,0.005258232133885809,0.08660784762157867,-0.04159346237769957
SYN0203,0.01378227828478663,-0.0234236511728045,0.018921392810416087,0.0629524062394846,-0.05545188272780875,0.0011423613268161067,-0.01781843539669766,-0.09221976532010233,-0.04485453315954028,-0.008799727057074156,0.041816574189167115,0.04897642365932035,-0.08334436756403923,0.03704517441790875,-0.06300727064147735,0.003516533405432459,0.023432284576282488,-0.027408918575593834,0.013779637671483982,-0.0007509886596099693
SYN0031,-0.05215930993738279,0.0382993447876516,0.040565272364595145,0.0011513233680242629,-0.02591943485820461,-0.026247262394493567,-0.029343756966187327,-0.05404782786692181,0.009328801169538091,0.030642243531263755,-0.001157720475249846,-0.010242237228871687,-0.025949716066330352,-0.017345061063459663,-0.016394137156234802,0.023226824049731924,-0.04138695080508285,0.027611836036290565,0.02185836797692527,-0.025525043941938563
SYN0061,-0.07707279468435883,0.05102544346592028,-0.03546766441296668,-0.03279596196818568,-0.10748010841126183,0.03925200002626497,0.020239155104166302,0.036757338040660406,-0.03447188136763092,0.023604609308320444,0.05183369108664096,-0.05889965533305101,-0.008001438090971072,0.016240236236180643,-0.0264686996411863,0.01213022086061663,0.002970536974605597,0.03855389442419342,-0.03934976210066664,-0.041543373337907884
SYN0410,-0.019255962955185765,0.017727685344779854,-0.04391540734848613,0.06607270670447236,0.025715207256122124,0.00021380589910879993,-0.0467346426313103,0.14376213495609377,-0.00023529583133413074,0.02642838257019264,-0.019463805885456067,-0.07954382251140071,0.003462911422708008,0.023963513998469986,-0.0821980516489389,-0.03807049265512082,-0.011407283695479862,0.007241012821186775,-0.09190806571156014,-0.019737676640460017
SYN0074,0.04911259223572282,0.007841456961165748,0.02569328409502135,-0.10326503954702301,0.020872341309218185,-0.09459371259493007,0.012770446875210138,0.015897495119014032,0.008496948693970397,0.001998609118051122,-0.006065479423725624,0.046901005269037684,-0.042301275775071825,-0.02438527857275197,0.014131302236857947,-0.00699408753648734,-0.055454338406287926,-0.008897436403650797,-0.00892437586000502,-0.03697191214084783
SYN0346,0.019811865652661825,-0.0027719203656451103,-0.031136722038396826,-0.00969406030074634,0.05473902485089076,0.0029711472877961154,0.001675011805923554,0.032529714376358425,0.02106665525310587,0.075558676599671,0.025331535748497266,0.022069674401963186,-0.06463392053046524,-0.004426174575106176,0.03621640832286303,0.029945305469468324,-0.015842363642978096,-0.009416864914098788,0.039737877182306536,0.02774328605260637
SYN0004,0.04339764433331726,-0.041960959694315424,0.025501167544893396,-0.003686537166936306,-0.0022926267171652862,-0.02244442970702756,0.027558258244385878,0.07664781764036804,0.0045004425403370775,0.005489392460138033,-0.03854887956505391,-0.045004309810397804,-0.0011752746267491136,-0.00963372016636069,0.07416769377767547,0.08146131829318375,-0.011669313104170275,0.01505162992412616,0.016817808618025443,-0.006361618930882954
SYN0338,-0.07815992243450565,-0.04984777348746498,0.02992083472498736,-0.048565309585293794,-0.08571483208111431,-0.0431254068940686,0.028041792249834493,-0.018561549442250504,0.01087280269077206,-0.10262298760233153,0.029410759952580884,0.015868916140408463,0.040632408761992436,0.005300642073845296,-0.0034151850021801287,-0.004864310630977118,-0.01859823495158787,0.031075626018685635,0.011637976428404145,-0.03624493164587042
SYN0499,-0.013044990112956257,0.028435345344150324,0.015253577844406929,-0.0077152402972721235,0.026357497258696714,0.037498686172665135,0.008958590947831094,0.04469776638584667,-0.001274219813219675,0.057647570241062006,0.02050892324013399,0.006215086221296739,0.04692028537312342,-0.031544148243472694,-0.05050779741158457,-0.05317589575990246,-0.016463694787802994,-0.0006991679325224106,0.006037286316182737,0.023902899587488795
SYN0405,-0.011679903952257233,-0.006513665235446285,-0.08745163135415707,-0.01652402021254343,0.049659357431323235,0.04092377009600634,-0.0017103760793038493,-0.06485594689198577,-0.1477340481382925,0.03402993996980381,0.049722820900322234,-0.006468025604643764,-0.07054496969224955,-0.016528410951493867,0.025461234849666437,-0.04226203288377185,0.01391782157059824,-0.06839198741607455,-0.00936022113112481,0.03888298047797713
SYN0420,-0.07206098790462143,-0.03462247431798578,0.054138325816613486,-0.07902890929820557,-0.05131571028249881,-0.014852768536066154,0.0038598232337031762,0.019573728569804244,-0.003657178449425716,0.035192903060692504,-0.05879004888212119,0.0932881797018449,0.06592729800190936,-0.014542095349780477,-0.01981936514551389,-0.01633503931203789,0.08313764932860133,0.01577869342089905,-0.015087705407408489,0.015615840535192244
SYN0263,-0.0316395380491998,-0.017770545222210245,-0.020050905738354722,-0.042831559525519015,-8.750777195952919e-05,0.01886270121495022,-0.06489785653554775,0.04214902158034176,0.040663979000493414,0.028574042131714543,-0.017893995084703976,-0.07669770014084298,-0.004500421643134245,-0.08126708570579354,-0.023930738904559365,-0.054704141823415084,0.12106733723327309,-0.09257106269938285,0.010087253886447857,0.11766590354415785
SYN0227,0.021750790737660036,-0.00993711871701629,-0.022853924440712138,-0.02465514637197571,0.12514827274260223,0.01971747952388907,-0.0029507190438446853,-0.06606385791465137,0.014676386826533204,0.04884715186051633,0.03706494770416456,0.039723632510855145,-0.039982557909032115,0.05347072059059185,-0.06960641240244905,0.02281841667095175,0.0028799032863629833,-0.016843285386759582,-0.07694539868824243,0.030724161941075658
SYN0235,0.03559825956330362,-0.016934976247309736,-0.028982403323598666,-0.04227180545388504,-0.015765700051828247,0.01507132720551496,-0.07134771078458453,-0.005550802461271167,0.03679027277321588,0.020498592009465764,-0.032468276549972294,0.022081396685072332,-0.0006471324655143097,0.07891161948109775,0.02790984415142324,0.008466176993489762,0.0006011024056154285,-0.04477961777701651,-0.02285940217928958,0.012233778549871264
SYN0119,0.06892228812733098,0.046467348245226414,0.018033755277485956,0.10261320875875299,0.009525231349293754,0.09958605766540751,0.007992936124960727,0.004761114934103309,0.06952624961811234,-0.06267287688467187,0.0039224236763608445,0.06525107219810983,-0.009531141450071225,-0.047346305597370845,-0.04617331985990212,-0.04903827031082417,0.001802876825968155,-0.019220786011150483,0.013187857370206026,0.02442006773381448
SYN0293,-0.03422541613210002,0.0015818954726120132,0.06180636255309772,0.0278097866025799,0.07763308234254013,-0.11744523704014441,0.04076054437247051,0.033254758761224544,0.052737539219234686,-0.09124864403049388,-0.05448166640590566,0.049937874788076535,-0.02290409476516718,-0.023392769990002598,0.011695027834371492,-0.023879814131437183,-0.02769233797008619,-0.05493671645151181,-0.01443708489711031,0.08710084475320024
SYN0127,-0.025212586941349226,0.04032678209336756,0.02711017821599902,0.06758151024692452,-0.01607936616262484,-0.028613531596002526,-0.03251084097972096,0.005529840584560206,0.04624544520572468,0.009351226994729156,-0.08014009554720808,-0.0148860038571803,0.0038718534426488184,-0.05413707496850713,-0.039458976629602995,-0.06554548005709569,-0.06708961020334542,-0.01934671226093613,-0.04064929676842933,0.044939056041873975
SYN0347,0.03368136659764087,0.03427717391327246,-0.010559619392301604,0.014550617388720004,0.04633937212854946,-0.06851107670002522,0.01711374389537416,-0.017247186483717977,0.0008827011873022352,0.02709857938520473,0.00391215597874917,-0.02933089021972373,-0.08026064951297943,0.016010047100491923,0.022132313170891614,0.02810661759884273,0.03279905969137966,0.009169083971491458,0.010222624074932173,0.01613306894114236
SYN0048,0.0010272028216581903,-0.05149602601880487,0.008235839604765894,-0.01600626951273252,-0.03797047903262974,0.05773183497282242,0.0493452169060926,-0.052263871527278113,-0.011187155496084965,-0.0031686317426541264,0.008593728265658709,-0.030066985592267243,-0.033519646434885114,0.018113456958076066,0.026714906008798448,-0.022273721847153004,-0.02876313972502322,-0.024004002737402365,0.052382100031033975,0.03822111417932265
SYN0323,0.053946013497437904,-0.019884643077102176,-0.049698684993988364,-0.055421942080216814,-0.0142761806294934,-0.004161280070491772,-0.029871448494522602,-0.09022660738444381,-0.0739170203968531,0.00498230164928952,-0.0356835962936116,0.0007410553393910232,0.06858868117151225,0.022166888422174607,0.04074615210935908,0.00871306894085937,0.08199425912005284,-0.059938428203707095,0.001044749218190118,0.02506930378667144
SYN0201,-0.05634660207700189,-0.11445328740417411,0.07748094908857434,0.013989181725514825,0.08290883141800029,0.03686235538848848,0.028421116036331125,0.021271600216519134,0.018932625939224932,0.003844641002159818,0.029317230501680103,0.004357612262131331,-0.013574793973546507,0.031252760006663126,0.00044188283293196856,-0.014458190644491803,0.06975982545087309,0.05495952026824312,-0.03452527291568448,0.0812480418545519
SYN0128,-0.006249080154102667,0.0016703652766464918,0.07360311435216935,0.008281548072553057,0.011605950841821847,0.024546060788063765,-0.00862171173774384,-0.012367234934717987,0.04457081321643655,-0.08172774121061932,0.07950100721725033,-0.13164758418947137,0.0968833991318689,-0.03291408170578068,-0.016022060376399198,-0.021279616093940055,-0.10615499928306411,0.04887439529438556,-0.030292438647681122,-0.048402671106171406
SYN0220,0.00911991854366355,-0.009650186953373259,0.050572404917875194,0.031470978553662106,0.051740622757188555,0.02528734740611706,0.02795105470853717,-0.07593442429852212,0.03300701316342119,-0.03151472471856765,-0.0215804138016635,0.025252782721279784,-0.006154430533314566,0.03440817620500655,-0.061685329371367795,-0.016595972678004303,0.016441107761170904,0.030718271102754036,-0.02136916647072088,-0.12070636999683433
SYN0147,0.05208775044504826,-0.0036567947430782544,0.029794430267440875,-0.024587637736053235,-0.021462890726535105,-0.00735266350878766,0.06050410063597001,-0.04596912949806915,0.060945679274326314,-0.0007367058098305195,-0.004558769380399564,-0.052271746425063395,0.018587612427231653,-0.02797597906087963,-0.058102018031122235,0.05104146617921195,-0.06057409270290452,0.006144784906108368,0.07022569522973038,0.018883181382221944
SYN0242,-0.025355563114024305,0.020280218540341514,-0.0357912785053104,0.030190133594521464,-0.012473006402093971,0.07080747405036862,-0.00021364957583794124,-0.012945771345538712,-0.02296758075580208,-0.016812248780300614,-0.04571860179063881,0.02591534193339081,-0.007410444803330647,-0.032742992102658915,-0.029846210323419362,0.006706543055201008,0.0005238942325367209,-0.011212744153556733,0.07149384653469495,0.05795557243994185
SYN0245,0.03178282865422236,0.056198745057655305,-0.029229003508990156,0.03980144050441136,0.033938469101295776,0.05567590089926592,0.05113600080267046,-0.0006342715288117764,0.036091121420730204,-0.03767500728508761,-0.06393006716611849,-0.03969015761023692,0.02268452475892288,0.002297840345088811,0.06185448303783933,-0.09656449328672026,-0.03391652155019282,-0.030713316556062378,-0.03150019044179104,0.03553389727545484
SYN0028,-0.03342555901743449,0.05798973415516832,-0.05327121867136374,-0.021842717260833183,-0.06495502737542878,0.08887558763893318,0.0175149516621574,0.0033935755370244243,0.026887762911768625,0.09280199362148427,-0.07643216260898049,-0.032517902332549295,-0.07610319781093783,-0.020764828233440474,0.03584794340347429,0.03421477861317357,-0.006514589599709824,-0.025977674095326274,-0.01892649472044493,0.04416224351475751
SYN0387,0.020900914737172448,-0.023976497719129613,-0.004931287086247962,-0.08270875581404229,-0.02897043368796064,-0.02332457547267147,-0.04325564113770415,0.05557969037013764,-0.044552510465831606,0.03131002692808367,0.027328999733925392,0.10306294575749506,0.02260307992469534,0.06650825101799253,0.018810835837729956,0.031072477007803863,0.011666203427473648,-0.04989425479847329,-0.04166710409027762,-0.01186035396371314
SYN0063,-0.06375383493986261,-0.02815879722504791,0.052577242835148585,0.06758827096103778,-0.07886317229533046,-0.012662848274269075,-0.03828413228225631,0.014641684358763564,0.0033850798635335537,0.038877129948719044,-0.003435998837864538,0.028809021526514326,-0.04759537666411532,-0.0589843479920801,-0.009915709155872672,0.021625510234738965,0.01961451022921605,0.04532938030911065,0.01449855490949486,-0.008654813159333826
SYN0419,0.03250483301593277,0.04396406234793329,-0.013925119220341741,-0.03374127280658638,-0.047717917442144694,0.011063849850651583,-0.06469025832343488,0.015067031724431476,0.03785220633414951,-0.034324178207916334,0.04605088163892983,-0.004351031187566648,0.012994563630533668,0.006935117974512057,-0.009286714415582788,-0.01751311942429351,0.010744584700489286,-0.08911547809180849,-0.006878010916252542,-0.03111213942144598
SYN0496,0.05936402477859486,0.04858643909728712,0.01446085894612036,-0.026252534584778588,0.0583516748690938,-0.013620093295684315,0.0679239145992288,0.0691482821444967,0.021284505817940565,0.056162631684114755,-0.023953204794293435,0.09807748166559963,-0.06557167960904198,-0.021238568467625844,-0.07461954209278873,0.04299240644424739,0.06442548859110644,-0.04940160497115276,0.037254536723061164,-0.06380793085601343
SYN0396,0.030202263594685728,-0.13186120609561713,-0.0384815388495015,-0.008536604926313536,0.022342280322398905,0.02350863041619158,-0.055296255862031386,0.004082172163426151,0.004460921130457276,-0.03949285228087483,0.09124503062436774,-0.004941787757247134,-0.0905105439346044,-0.0053023491869069244,-0.035284061542784274,-0.06316371733930645,-0.08953702821183034,-0.04472873607152677,0.049152604765785285,0.00021886917335870048
SYN0436,0.013638906510260469,-0.01571311124064395,0.017922265416611727,-0.03473946798999371,-0.09374672067902616,0.033380726137992,0.017753648953940673,-0.054690912784732516,0.021911319384714568,0.06418453096206517,-0.05064855634280865,0.031635976779489754,-0.030521218609623462,-0.027289942133993245,0.09598186405627071,-0.002745602039407842,-0.08846480596384038,-0.006148469393446802,-0.01403461815880684,0.08337855157886759
SYN0382,0.02645430114931314,0.010472940504208859,-0.07054230505501663,0.01718332023537194,0.05401947109628259,-0.0006403621286650203,-0.024462635381448525,-0.009081042185581402,-0.007367219772093901,-0.013151431382223118,0.028261145943422137,0.04099060045577882,-0.021994002711194987,0.0038604028046772152,0.009293057763455275,0.05185676853179564,0.048411793914174585,-0.054740936031692396,-0.04716580725973717,0.04897405932687242
SYN0349,-0.02843562271849078,0.03442422800389612,-0.012185487726246265,-0.019692193383794618,-0.032032193260373786,0.04380274984549518,-0.041620740293813595,0.007041722362176337,-0.06817141264252509,0.038112541832259664,0.0511908538513342,-0.062032893165693076,-0.09578118863709048,0.027942912747416164,0.10817465460384898,-0.057156692202623455,0.06565015818303037,-0.07421746162756662,-0.034519332689390114,-0.0016572252402595876
SYN0173,0.04112564084062458,0.023553685089747638,-0.022975602671246015,0.0044568810281966345,0.09699001528380832,0.04352068945512415,-0.010282119979037496,-0.0027291762057582553,-0.025475195986297616,-0.021763269312333907,0.008792051950025442,-0.04392020341892982,0.032439182964963,-0.06159389333798023,0.04903484533268235,-0.06036123404723502,0.08930442574528659,0.02635543076217359,0.031208590252131393,0.004279713808915107
SYN0392,0.004580149677041604,-0.00902011694632074,-0.027786238451972554,0.00920629748458393,0.018969384281190178,0.058091509271137584,-0.010097691855865499,0.09362972792738486,0.0068258461611587495,0.048523288263324506,-0.05810388712547203,0.0074828074264213585,0.032908579034715876,-0.0535678320714996,0.02344281979225823,-0.10063377306370722,-0.0068085565434976856,0.0025004780536398113,-0.014299296691156827,0.04469758272967963
SYN0229,-0.023733222998292162,0.10706040452603663,-0.0025493779392912032,0.040207376215244825,0.038950322659445945,-0.018727567433730455,0.07260931113977445,-0.029677053820689324,-0.0860211372576864,-0.047394951787930066,-0.00853603879888581,-0.020235191991219044,0.012454053691800327,-0.002801356758790581,-0.015190179587441196,0.005202756418082608,-0.06153427663570454,-0.0040331752312051244,0.03924535774797501,-0.0901120948894236
